tree
version=v4
num_class=1
num_tree_per_iteration=1
label_index=0
max_feature_idx=13
objective=regression
feature_names=slope_mean slope_std aspect_mean aspect_std GHI_mean GHI_std DNI_mean DNI_std DIF_mean DIF_std PVOUT_mean PVOUT_std TEMP_mean TEMP_std
feature_infos=[0:15.114568192025889] [0:29.009867844004827] [0:329.8724365234375] [0:164.70349245618311] [0:2037.7468872070312] [0:6.7734236028985384] [0:1442.8642456054688] [0:10.667332657481447] [0:967.5469970703125] [0:1.1219846449310751] [0:1593.5615397135416] [0:5.3222561029222639] [0:29.299999237060547] none
tree_sizes=631 811 834 750 751 839 673 745 651 674 680 728 680 772 744 730 669 740 668 668 731 743 580 731 581 724 801 658 736 724 770 651 751 669 733 759 688 673 676 764 692 817 846 797 827 728 738 750 814 744 650 764 778 669 818 692 794 775 870 763 738 840 753 746 727 652 831 724 737 839 664 726 834 760 754 776 827 741 835 577 752 736 661 751 648 736 780 729 728 561 665 817 749 645 668 785 761 868 826 816 850 715 717 655 656 739 697 719 652 809 607 821

Tree=0
num_leaves=6
num_cat=0
split_feature=0 0 0 0 0
split_gain=1.25223 0.343312 0.192942 0.0534795 0.00615322
threshold=1.5536651541976811 2.2051719901236626 1.2144160703914924 1.8368250680993574 1.7095774560402603
decision_type=2 2 2 2 2
left_child=2 3 -1 4 -2
right_child=1 -3 -4 -5 -6
leaf_value=0.352198697878221 0.33377993786769161 0.31754224805278924 0.33878826334094536 0.32726986052943141 0.33139225232507352
leaf_weight=41 40 58 53 61 32
leaf_count=41 40 58 53 61 32
internal_value=0.332492 0.326081 0.345284 0.330163 0.332668
internal_weight=285 191 94 133 72
internal_count=285 191 94 133 72
is_linear=0
shrinkage=1


Tree=1
num_leaves=8
num_cat=0
split_feature=0 0 0 0 0 0 0
split_gain=0.876129 0.311 0.0968072 0.0486611 0.0159754 0.00536647 0.00522163
threshold=1.5057915438643643 2.2664001977632919 1.1331673443317416 1.7916808213506428 2.66555974987318 1.935316221022503 1.6585589838333621
decision_type=2 2 2 2 2 2 2
left_child=2 3 -1 6 -3 -5 -2
right_child=1 4 -4 5 -6 -7 -8
leaf_value=0.017386066672222637 0.0021287981249393309 -0.0080075706169031226 0.0063917073269537409 -0.0016582141122391445 -0.015907996188736982 -0.0048012922724219647 0
leaf_weight=36 39 30 41 30 30 43 42
leaf_count=36 39 30 41 30 30 43 42
internal_value=-7.69409e-05 -0.00466864 0.0122121 -0.00121876 -0.0128002 -0.00373557 0.00105553
internal_weight=291 214 77 154 60 73 81
internal_count=291 214 77 154 60 73 81
is_linear=0
shrinkage=0.138639


Tree=2
num_leaves=8
num_cat=0
split_feature=0 0 0 0 0 0 0
split_gain=0.683203 0.236056 0.0645352 0.0309782 0.0208464 0.00311729 0.00223847
threshold=1.4804603758259358 2.1312214831511187 1.1002861644540516 1.7513071680810699 2.5966861125583391 1.8890633401386243 1.624241978086395
decision_type=2 2 2 2 2 2 2
left_child=2 3 -1 6 -3 -5 -2
right_child=1 4 -4 5 -6 -7 -8
leaf_value=0.015848144479788218 0.0021064638456803823 -0.0065390763825063638 0.0063250100671084957 -0.001006522786148488 -0.013517668596799284 -0.003414611430240768 0.00026992603552552944
leaf_weight=33 39 37 41 30 31 40 31
leaf_count=33 39 37 41 30 31 40 31
internal_value=0.00013952 -0.00392527 0.0112446 -0.000549208 -0.0103781 -0.00256774 0.00142596
internal_weight=282 208 74 140 68 70 70
internal_count=282 208 74 140 68 70 70
is_linear=0
shrinkage=0.138639


Tree=3
num_leaves=7
num_cat=0
split_feature=0 0 0 0 0 0
split_gain=0.488991 0.12367 0.0880847 0.0113604 0.00810964 0.000651733
threshold=1.72085612513343 1.2997776950017002 2.3373441853021322 1.4564045685379392 1.9520508680078721 1.6165222577997362
decision_type=2 2 2 2 2 2
left_child=1 -1 4 -3 -2 -5
right_child=2 3 -4 5 -6 -7
leaf_value=0.011809600252730092 -0.001037247022280985 0.0048370857358361798 -0.010046716354305513 0.0019535504303132751 -0.0039671329839406798 0.00056505255910551896
leaf_weight=42 44 33 51 33 47 31
leaf_count=42 44 33 51 33 47 31
internal_value=3.44848e-05 0.00581377 -0.00558981 0.00279382 -0.00271248 0.00143473
internal_weight=281 139 142 97 91 64
internal_count=281 139 142 97 91 64
is_linear=0
shrinkage=0.138639


Tree=4
num_leaves=7
num_cat=0
split_feature=0 0 0 0 0 0
split_gain=0.533157 0.151794 0.0860882 0.0184155 0.0149091 0.00147669
threshold=1.3734137582460761 2.0313508637610327 1.1002861644540516 2.5001010576883957 1.7135408006114223 1.6083861954284437
decision_type=2 2 2 2 2 2
left_child=2 4 -1 -3 5 -2
right_child=1 3 -4 -5 -6 -7
leaf_value=0.01680991104771554 0.0022179768568421029 -0.0041365932833965138 0.0051783404557650837 -0.0091125655977208116 -0.0011813776508033304 0.00054812345951732715
leaf_weight=30 46 48 30 42 56 30
leaf_count=30 46 48 30 42 56 30
internal_value=0.000603277 -0.00254937 0.0117755 -0.00680953 0.00043176 0.00168798
internal_weight=282 222 60 90 132 76
internal_count=282 222 60 90 132 76
is_linear=0
shrinkage=0.138639


Tree=5
num_leaves=8
num_cat=0
split_feature=0 0 0 0 0 0 0
split_gain=0.397307 0.112235 0.0525501 0.0181619 0.0131 0.00123799 0.000209396
threshold=1.4341231267233405 2.093084032899641 0.99558149973551446 2.5966861125583391 1.7578345428711928 1.639781640780362 1.8890633401386243
decision_type=2 2 2 2 2 2 2
left_child=2 4 -1 -3 5 -2 -6
right_child=1 3 -4 -5 6 -7 -8
leaf_value=0.013155310579291783 0.0014711286334700357 -0.0041374691197680474 0.0045291453702842365 -0.0093066768250169279 -0.00071162605912364991 0.00013338094629808525 -0.0019699317159023923
leaf_weight=33 49 54 36 30 30 32 34
leaf_count=33 49 54 36 30 30 32 34
internal_value=0.000297872 -0.00248421 0.00923074 -0.00638921 -7.31492e-05 0.00103817 -0.00153764
internal_weight=298 229 69 84 145 81 64
internal_count=298 229 69 84 145 81 64
is_linear=0
shrinkage=0.138639


Tree=6
num_leaves=6
num_cat=0
split_feature=0 0 0 0 0
split_gain=0.257352 0.0655683 0.0535706 0.01143 0.00310406
threshold=1.6732241579941161 2.6496192018191027 1.2740202643238729 1.9232303596765807 1.5231952258326338
decision_type=2 2 2 2 2
left_child=2 3 -1 -2 -4
right_child=1 -3 4 -5 -6
leaf_value=0.0083740097074563036 -0.00038219010357411036 -0.0091124214553112027 0.0030527645678857869 -0.0031382867686497308 0.00093314656966674264
leaf_weight=44 55 30 48 76 37
leaf_count=44 55 30 48 76 37
internal_value=3.42265e-05 -0.00360509 0.00458863 -0.00206768 0.00227576
internal_weight=290 161 129 131 85
internal_count=290 161 129 131 85
is_linear=0
shrinkage=0.138639


Tree=7
num_leaves=7
num_cat=0
split_feature=1 2 1 3 1 4
split_gain=0.0897309 0.0277634 0.0198067 0.00419397 0.00255156 0.00111408
threshold=0.97308595860386937 141.3009983707619 1.2796571772048044 66.119809002282764 0.82294774155075845 1994.9501647949221
decision_type=2 2 2 2 2 2
left_child=1 -1 5 -3 -5 -2
right_child=2 3 -4 4 -6 -7
leaf_value=0.0041537301106105168 -0.0022444820138546174 -0.00064316226603054749 -0.0058092401768573372 0.0017408055672653365 0 -0.00063138412354712752
leaf_weight=56 33 40 38 38 33 32
leaf_count=56 33 40 38 38 33 32
internal_value=-0.000211138 0.00174119 -0.00337339 0.000373196 0.00102209 -0.00161289
internal_weight=270 167 103 111 71 65
internal_count=270 167 103 111 71 65
is_linear=0
shrinkage=0.138639


Tree=8
num_leaves=6
num_cat=0
split_feature=0 0 0 0 0
split_gain=0.111476 0.024745 0.0135215 0.00121406 0.00022146
threshold=1.8167609572410586 1.3994674694629199 2.452315521167006 1.6900292324878488 2.0176857855584891
decision_type=2 2 2 2 2
left_child=1 -1 4 -3 -2
right_child=2 3 -4 -5 -6
leaf_value=0.00423573298341563 -0.0010156507729011375 0.00094201131427702354 -0.0052355830531616568 0 -0.0023844917724635088
leaf_weight=59 32 64 48 34 46
leaf_count=59 32 64 48 34 46
internal_value=-0.000348166 0.00207401 -0.00337865 0.000602589 -0.00196722
internal_weight=283 157 126 98 78
internal_count=283 157 126 98 78
is_linear=0
shrinkage=0.138639


Tree=9
num_leaves=6
num_cat=0
split_feature=0 0 0 0 0
split_gain=0.0988547 0.0228459 0.0217445 0.0015142 0.00104984
threshold=1.7916808213506428 1.3494398213885763 2.6496192018191027 1.599327389117891 2.0414364687801663
decision_type=2 2 2 2 2
left_child=1 -1 4 -3 -2
right_child=2 3 -4 -5 -6
leaf_value=0.0042946911208943481 -0.00093042107865149598 0.0012201313304899917 -0.0062098675545705431 2.2490561931344365e-05 -0.0023484088372967204
leaf_weight=54 43 49 30 49 54
leaf_count=54 43 49 30 49 54
internal_value=-0.000250519 0.00208995 -0.0030712 0.000699322 -0.00183625
internal_weight=279 152 127 98 97
internal_count=279 152 127 98 97
is_linear=0
shrinkage=0.138639


Tree=10
num_leaves=6
num_cat=0
split_feature=0 0 0 0 0
split_gain=0.122023 0.0477392 0.0105145 0.00114761 9.36929e-05
threshold=1.3494398213885763 2.4702787596791516 1.7916808213506428 1.5966670016447704 1.9979143381118776
decision_type=2 2 2 2 2
left_child=-1 2 3 -2 -4
right_child=1 -3 4 -5 -6
leaf_value=0.005586777393730924 0.0010919726130233596 -0.0054081529898268492 -0.00071114897170396988 5.7267813631690348e-05 -0.0017732466385196825
leaf_weight=59 47 40 34 56 47
leaf_count=59 47 40 34 56 47
internal_value=0.000174766 -0.00130091 -0.000281668 0.000603726 -0.00144659
internal_weight=283 224 184 103 81
internal_count=283 224 184 103 81
is_linear=0
shrinkage=0.138639


Tree=11
num_leaves=7
num_cat=0
split_feature=0 0 0 0 0 0
split_gain=0.064999 0.0190412 0.013201 0.00221862 0.000524439 2.873e-05
threshold=1.8167609572410586 1.2144160703914924 2.6496192018191027 1.5891331993923643 2.0627484056082643 1.6900292324878488
decision_type=2 2 2 2 2 2
left_child=1 -1 4 -3 -2 -5
right_child=2 3 -4 5 -6 -7
leaf_value=0.0040483747683689036 -0.0007341507164513655 0.0012263540578730885 -0.0049009205858229115 0.0001273332365440122 -0.0018768598766768752 0
leaf_weight=42 42 60 31 30 56 35
leaf_count=42 42 60 31 30 56 35
internal_value=-0.000162117 0.0016085 -0.00247435 0.00064503 -0.0014891 0
internal_weight=296 167 129 125 98 65
internal_count=296 167 129 125 98 65
is_linear=0
shrinkage=0.138639


Tree=12
num_leaves=6
num_cat=0
split_feature=0 0 0 0 0
split_gain=0.0441972 0.0123854 0.00595762 0.00126727 0.000404764
threshold=1.4804603758259358 2.0627484056082643 1.1331673443317416 1.7513071680810699 2.5575515246075216
decision_type=2 2 2 2 2
left_child=2 3 -1 -2 -3
right_child=1 4 -4 -5 -6
leaf_value=0.0044817477748892625 0.00029573626476856379 -0.0015149779600759587 0.0013712671966725955 -0.00057036295814516112 -0.0031076458955623643
leaf_weight=30 66 48 37 53 30
leaf_count=30 66 48 37 53 30
internal_value=2.59969e-05 -0.00100455 0.00301699 -5.18846e-05 -0.00231723
internal_weight=264 197 67 119 78
internal_count=264 197 67 119 78
is_linear=0
shrinkage=0.138639


Tree=13
num_leaves=7
num_cat=0
split_feature=0 0 2 0 0 0
split_gain=0.0374636 0.0126822 0.00644344 0.0110635 0.000725553 2.69565e-05
threshold=2.7092159616903948 1.7295584237390713 77.907207012176528 1.3494398213885763 1.8566825201417008 1.5845271287737632
decision_type=2 2 2 2 2 2
left_child=1 2 -1 -4 -3 -5
right_child=-2 4 3 5 -6 -7
leaf_value=-0.00052932533333727313 -0.0046757271764936463 -4.7951345232840967e-05 0.0036256485199590402 0.00074552047285865886 -0.0010727260679185661 0.00017989147089355115
leaf_weight=30 30 30 32 37 81 41
leaf_count=30 30 30 32 37 81 41
internal_value=-0.000353269 0.000208204 0.00108888 0.00158104 -0.000854503 0.000538101
internal_weight=281 251 140 110 111 78
internal_count=281 251 140 110 111 78
is_linear=0
shrinkage=0.138639


Tree=14
num_leaves=7
num_cat=0
split_feature=0 0 0 0 0 0
split_gain=0.058135 0.0208122 0.00463594 0.00285 0.000264211 8.64569e-05
threshold=0.99558149973551446 2.0627484056082643 2.66555974987318 1.6732241579941161 1.8167609572410586 1.5662450713989065
decision_type=2 2 2 2 2 2
left_child=-1 3 -3 5 -5 -2
right_child=1 2 -4 4 -6 -7
leaf_value=0.0053327063563522788 0.00089580592506125249 -0.0012448814081995824 -0.0037002683876565571 0 -0.00052827540135458144 0.00022138114335191469
leaf_weight=32 66 56 31 38 45 34
leaf_count=32 66 56 31 38 45 34
internal_value=8.54702e-05 -0.000586329 -0.00230545 0.00023416 -0.00031453 0.000736359
internal_weight=302 270 87 183 83 100
internal_count=302 270 87 183 83 100
is_linear=0
shrinkage=0.138639


Tree=15
num_leaves=7
num_cat=0
split_feature=1 2 1 4 1 1
split_gain=0.0308193 0.00856866 0.00546347 0.00193926 0.000961676 0.000236357
threshold=0.47104687185966404 115.50658980537865 1.3258567918844659 2000.673356489702 0.81991561619620434 0.91180582515773378
decision_type=2 2 2 2 2 2
left_child=1 -1 3 4 -2 -5
right_child=2 -3 -4 5 -6 -7
leaf_value=0.004462536879592304 0 0.00083785490136753797 -0.002124367279004009 0.00054181269074164262 -0.0008179487751658011 0
leaf_weight=31 41 30 30 40 75 36
leaf_count=31 41 30 30 40 75 36
internal_value=0.000258752 0.00292699 -0.000489729 -0.000167884 -0.000535353 0.000323742
internal_weight=283 61 222 192 116 76
internal_count=283 61 222 192 116 76
is_linear=0
shrinkage=0.138639


Tree=16
num_leaves=6
num_cat=0
split_feature=0 0 0 0 0
split_gain=0.0272086 0.0154363 0.00429603 0.00029781 9.78326e-05
threshold=0.99558149973551446 2.7092159616903948 1.7787168920040133 1.6585589838333621 2.0414364687801663
decision_type=2 2 2 2 2
left_child=-1 2 3 -2 -4
right_child=1 -3 4 -5 -6
leaf_value=0.0035866055519848069 0.00058112901007315899 -0.0032830208280400877 -0.00028826975643838368 0 -0.00091980882590854093
leaf_weight=31 88 30 45 31 63
leaf_count=31 88 30 45 31 63
internal_value=-2.06375e-05 -0.000525582 -8.6357e-05 0.000454006 -0.000725186
internal_weight=288 257 227 119 108
internal_count=288 257 227 119 108
is_linear=0
shrinkage=0.138639


Tree=17
num_leaves=7
num_cat=0
split_feature=2 0 0 3 0 4
split_gain=0.0386642 0.0134952 0.00425372 0.00256487 0.00030494 6.63482e-05
threshold=69.774163775973861 1.4804603758259358 2.05513951084327 88.557810207479392 1.7787168920040133 2004.9301696777345
decision_type=2 2 2 2 2 2
left_child=-1 -2 4 -4 5 -3
right_child=1 2 3 -5 -6 -7
leaf_value=-0.0050293754936367834 0.0018545263019589589 0 -0.0022524672306571732 -0.00044261805832994464 -0.00029747078817743584 0.00027726941492037705
leaf_weight=30 52 42 33 46 47 30
leaf_count=30 52 42 33 46 47 30
internal_value=-0.000645925 -2.65643e-05 -0.000574837 -0.00133725 0 0.000132885
internal_weight=280 250 198 79 119 72
internal_count=280 250 198 79 119 72
is_linear=0
shrinkage=0.138639


Tree=18
num_leaves=6
num_cat=0
split_feature=1 3 3 1 3
split_gain=0.0112362 0.00453218 0.00102801 0.00191394 0.000216437
threshold=1.2796571772048044 1.0000000180025095e-35 107.86704626512891 0.83823637738337442 91.273408534729242
decision_type=2 2 2 2 2
left_child=1 -1 4 -4 -3
right_child=-2 2 3 -5 -6
leaf_value=0.0014331671595296342 -0.0021693593490825979 -0.0003865763948142062 0.0012176163010532964 -3.2875861261882565e-05 0
leaf_weight=54 35 64 30 51 52
leaf_count=54 35 64 30 51 52
internal_value=1.35093e-06 0.000355069 9.52945e-06 0.000402306 -0.000223751
internal_weight=286 251 197 81 116
internal_count=286 251 197 81 116
is_linear=0
shrinkage=0.138639


Tree=19
num_leaves=6
num_cat=0
split_feature=0 0 0 0 3
split_gain=0.0124392 0.00527964 0.000574731 0.000521776 3.86472e-05
threshold=0.99558149973551446 1.9979143381118776 2.3373441853021322 1.6900292324878488 99.876059377180837
decision_type=2 2 2 2 2
left_child=-1 3 -3 -2 -5
right_child=1 2 -4 4 -6
leaf_value=0.0022918942272340407 0.00035381365719585082 -0.00044876117352229673 -0.0014508518549799408 -0.0001938004091191373 0
leaf_weight=37 104 45 54 32 30
leaf_count=37 104 45 54 32 30
internal_value=2.89099e-05 -0.000296637 -0.00108375 0.000155456 -9.62109e-05
internal_weight=302 265 99 166 62
internal_count=302 265 99 166 62
is_linear=0
shrinkage=0.138639


Tree=20
num_leaves=7
num_cat=0
split_feature=0 0 0 0 8 3
split_gain=0.0870528 0.00421662 0.000511664 0.000340545 2.89477e-05 2.05738e-05
threshold=1.2144160703914924 2.0627484056082643 1.7295584237390713 2.5232127004789442 957.35660400390634 105.1977567276967
decision_type=2 2 2 2 2 2
left_child=-1 2 4 -3 -2 -4
right_child=1 3 5 -5 -6 -7
leaf_value=0.0071596959632027326 0.00035384591231267423 -0.00054346359061164986 -0.00025473939107497002 -0.0015591167401328766 0 0
leaf_weight=30 69 45 35 35 31 30
leaf_count=30 69 45 35 35 31 30
internal_value=0.000584655 -0.00030215 7.2784e-05 -0.00110635 0.000287332 -0.000175999
internal_weight=275 245 165 80 100 65
internal_count=275 245 165 80 100 65
is_linear=0
shrinkage=0.138639


Tree=21
num_leaves=7
num_cat=0
split_feature=3 2 1 6 1 2
split_gain=0.00532187 0.0021227 0.0009999 0.00113246 0.000444497 0.000179113
threshold=50.354183463406748 121.31415360062212 0.68528490702694189 1388.8994384765626 1.1493839707900224 156.62058237667119
decision_type=2 2 2 2 2 2
left_child=1 -1 -2 4 -4 -5
right_child=2 -3 3 5 -6 -7
leaf_value=-0.0022015338403145153 0.00066172276058145546 -0.00048452469826897732 -0.00013339199770800341 0.00034119579789621706 -0.00089974220404667889 0
leaf_weight=32 31 45 64 51 33 30
leaf_count=32 31 45 64 51 33 30
internal_value=-0.000385888 -0.0013397 0 -0.000145752 -0.000473603 0.000186764
internal_weight=286 77 209 178 97 81
internal_count=286 77 209 178 97 81
is_linear=0
shrinkage=0.138639


Tree=22
num_leaves=5
num_cat=0
split_feature=0 0 0 8
split_gain=0.00801772 0.00386573 0.00116064 0.00011141
threshold=2.6496192018191027 0.99558149973551446 1.8167609572410586 959.04672848324583
decision_type=2 2 2 2
left_child=1 -1 3 -3
right_child=-2 2 -4 -5
leaf_value=0.0015156810488171648 -0.0021209893904570584 0.00025970787894529071 -0.00042846193119553495 0
leaf_weight=30 30 98 95 31
leaf_count=30 30 98 95 31
internal_value=-0.000112819 0.000132909 -5.21037e-05 0.000188787
internal_weight=284 254 224 129
internal_count=284 254 224 129
is_linear=0
shrinkage=0.138639


Tree=23
num_leaves=7
num_cat=0
split_feature=0 1 0 4 0 8
split_gain=0.00496566 0.00420895 0.0070262 0.00197107 0.00249673 2.99731e-05
threshold=1.7667598514721314 0.39636834578699592 1.3994674694629199 1989.9732055664065 2.3373441853021322 956.48011474609382
decision_type=2 2 2 2 2 2
left_child=1 -1 -3 4 -2 -4
right_child=3 2 5 -5 -6 -7
leaf_value=-0.00054386160777069876 -0.00026330222136726727 0.0026127039767193734 0.00023973039392287176 0 -0.0019504439561836115 0
leaf_weight=44 52 31 53 56 32 30
leaf_count=44 52 31 53 56 32 30
internal_value=-9.67526e-06 0.000498586 0.00095188 -0.000618935 -0.00102807 0.000176207
internal_weight=298 158 114 140 84 83
internal_count=298 158 114 140 84 83
is_linear=0
shrinkage=0.138639


Tree=24
num_leaves=5
num_cat=0
split_feature=0 0 0 8
split_gain=0.0060178 0.00319896 0.000429847 4.59555e-05
threshold=2.5966861125583391 0.99558149973551446 1.8167609572410586 957.73564841530549
decision_type=2 2 2 2
left_child=1 -1 3 -3
right_child=-2 2 -4 -5
leaf_value=0.0013663590394046351 -0.0018435892280997289 0.00012628772221441072 -0.00028298992531763646 0
leaf_weight=30 30 99 99 37
leaf_count=30 30 99 99 37
internal_value=-9.91721e-05 0.000102917 -5.60728e-05 7.36798e-05
internal_weight=295 265 235 136
internal_count=295 265 235 136
is_linear=0
shrinkage=0.138639


Tree=25
num_leaves=7
num_cat=0
split_feature=0 0 0 1 1 1
split_gain=0.0133851 0.00474676 0.000180408 0.000251633 2.94783e-05 1.35421e-06
threshold=0.99558149973551446 2.66555974987318 1.7295584237390713 1.0320649968128734 0.82995398690548583 1.1783923572876029
decision_type=2 2 2 2 2 2
left_child=-1 2 4 -4 -2 -5
right_child=1 -3 3 5 -6 -7
leaf_value=0.0025792010115972888 0 -0.0017944788914519008 -0.0003338143942771426 0 0.0001680116587561832 2.7644983099688718e-05
leaf_weight=32 58 30 63 31 47 30
leaf_count=32 58 30 63 31 47 30
internal_value=6.04581e-05 -0.000265045 -1.35817e-05 -0.000143469 8.95558e-05 0
internal_weight=291 259 229 124 105 61
internal_count=291 259 229 124 105 61
is_linear=0
shrinkage=0.138639


Tree=26
num_leaves=8
num_cat=0
split_feature=1 0 6 0 1 0 1
split_gain=0.00746289 0.0103632 0.00217387 0.00448744 0.000148024 5.84611e-05 2.21733e-06
threshold=0.39636834578699592 1.4141484332839942 1391.3758226216135 2.3373441853021322 1.0681763925363896 1.7095774560402603 1.017097320185876
decision_type=2 2 2 2 2 2 2
left_child=-1 -2 3 5 -4 -3 -7
right_child=1 2 4 -5 -6 6 -8
leaf_value=-0.001619108218085163 0.0023635972953933112 0 0 -0.0019339752315780149 0.00057402478022100002 -0.00018289752986595247 0
leaf_weight=55 30 33 37 31 30 40 30
leaf_count=55 30 33 37 31 30 40 30
internal_value=-0.000221553 0.000110262 -0.000239646 -0.000572076 0.000343354 -5.35963e-05 -0.000139015
internal_weight=286 231 201 134 67 103 70
internal_count=286 231 201 134 67 103 70
is_linear=0
shrinkage=0.138639


Tree=27
num_leaves=6
num_cat=0
split_feature=0 2 0 0 4
split_gain=0.00168543 0.000466688 0.00126464 0.000119804 5.5855e-05
threshold=2.6496192018191027 128.95668764854679 1.3734137582460761 1.935316221022503 2005.9908110519939
decision_type=2 2 2 2 2
left_child=1 -1 -3 4 -4
right_child=-2 2 3 -5 -6
leaf_value=-0.00028202715587600315 -0.0010032698567939476 0.00089937901599815013 0 -0.00016893942652277107 0.00019361122662962742
leaf_weight=59 30 31 64 59 38
leaf_count=59 30 31 64 59 38
internal_value=-8.33942e-05 1.94348e-05 0.00014374 0 6.88665e-05
internal_weight=281 251 192 161 102
internal_count=281 251 192 161 102
is_linear=0
shrinkage=0.138639


Tree=28
num_leaves=7
num_cat=0
split_feature=0 4 0 1 3 1
split_gain=0.0236353 0.000767719 0.00131164 0.000346839 0.000135754 8.58162e-05
threshold=0.99558149973551446 1996.722284490412 2.3373441853021322 1.1174292525074005 59.822317729790115 0.96578727468122627
decision_type=2 2 2 2 2 2
left_child=-1 2 4 -3 -2 -6
right_child=1 3 -4 -5 5 -7
leaf_value=0.0037033032152304227 0.00013571335448283301 0 -0.0010133371215967832 0.0005446433771133587 -0.00026677060148690244 0
leaf_weight=32 38 70 33 30 45 30
leaf_count=32 38 70 33 30 45 30
internal_value=0.000384788 -7.8227e-05 -0.000292631 0.000181725 -7.84989e-06 -0.000152635
internal_weight=278 246 146 100 113 75
internal_count=278 246 146 100 113 75
is_linear=0
shrinkage=0.138639


Tree=29
num_leaves=7
num_cat=0
split_feature=0 1 0 8 3 0
split_gain=0.0188581 0.000400869 0.000430117 0.000110298 7.30517e-05 8.53508e-06
threshold=1.2740202643238729 1.3146110436970024 1.8706008959352303 956.62652587890636 72.566530388082924 1.6327927851831761
decision_type=2 2 2 2 2 2
left_child=-1 2 3 5 -4 -2
right_child=1 -3 4 -5 -6 -7
leaf_value=0.0034419914619986066 0.00022679883395460994 0.0004338266825328801 0 -3.0826825162290546e-05 -0.00042927017825133751 0
leaf_weight=31 48 32 31 49 51 36
leaf_count=31 48 32 31 49 51 36
internal_value=0.000432986 0 -6.47571e-05 5.69246e-05 -0.000318713 0.000168955
internal_weight=278 247 215 133 82 84
internal_count=278 247 215 133 82 84
is_linear=0
shrinkage=0.138639


Tree=30
num_leaves=7
num_cat=0
split_feature=1 1 3 4 9 3
split_gain=0.0105078 0.00182913 0.0020751 0.000617131 5.86931e-05 5.41602e-05
threshold=1.0000000180025095e-35 0.66328216652057936 81.004096343941015 2010.3950931324682 0.14929171871094879 110.90406315474935
decision_type=2 2 2 2 2 2
left_child=-1 -2 -3 4 5 -4
right_child=1 2 3 -5 -6 -7
leaf_value=-0.002205372415870932 0.0008437858714038422 -0.0010962259677827684 6.5095093251759734e-05 0.00044713186516401755 -0.00024454797054282267 -0.0001464421164574029
leaf_weight=43 42 31 49 53 31 34
leaf_count=43 42 31 49 53 31 34
internal_value=-0.000308403 4.0199e-05 -0.000116858 5.48312e-05 -9.05731e-05 0
internal_weight=283 240 198 167 114 83
internal_count=283 240 198 167 114 83
is_linear=0
shrinkage=0.138639


Tree=31
num_leaves=6
num_cat=0
split_feature=1 6 1 7 1
split_gain=0.00810724 0.000546739 0.000673053 0.000150391 5.42145e-05
threshold=0.47104687185966404 1399.75966389974 1.1783923572876029 0.30975786066645922 0.72686823131095613
decision_type=2 2 2 2 2
left_child=-1 2 4 -3 -2
right_child=1 3 -4 -5 -6
leaf_value=0.0016527783754623989 0 0 -0.00081002621674299414 0.00039422361641374342 -0.00012074300694091154
leaf_weight=60 31 32 31 30 93
leaf_count=60 31 32 31 30 93
internal_value=0.000276535 -0.000102739 -0.000256191 0.000190706 -5.39669e-05
internal_weight=277 217 155 62 124
internal_count=277 217 155 62 124
is_linear=0
shrinkage=0.138639


Tree=32
num_leaves=7
num_cat=0
split_feature=1 1 1 2 3 2
split_gain=0.00555811 0.00586757 0.00131445 0.000159242 7.26953e-05 2.68138e-05
threshold=0.39636834578699592 0.66328216652057936 1.3258567918844659 142.92059277971927 99.876059377180837 156.85594583641372
decision_type=2 2 2 2 2 2
left_child=-1 -2 3 -3 -5 -6
right_child=1 2 -4 4 5 -7
leaf_value=-0.0015126580672844259 0.0015340768892689192 -0.00027647628896570824 -0.0010364575896087886 0.00019197856576709009 0 -0.00011483282105175608
leaf_weight=50 38 43 32 31 41 43
leaf_count=50 38 43 32 31 41 43
internal_value=-0.000246003 2.99236e-05 -0.000268662 -5.75292e-05 0 -3.45569e-05
internal_weight=278 228 190 158 115 84
internal_count=278 228 190 158 115 84
is_linear=0
shrinkage=0.138639


Tree=33
num_leaves=6
num_cat=0
split_feature=0 6 0 3 1
split_gain=0.0176775 0.000672356 0.00150433 6.25326e-05 0.000126199
threshold=0.99558149973551446 1399.75966389974 2.452315521167006 31.717474937438968 0.82995398690548583
decision_type=2 2 2 2 2
left_child=-1 2 3 -2 -5
right_child=1 -3 -4 4 -6
leaf_value=0.0031939570832710731 4.4012578391883933e-05 0.00023350457358346113 -0.0011074452356619852 -0.00025874667399217128 0
leaf_weight=31 30 58 30 53 70
leaf_count=31 30 58 30 53 70
internal_value=0.000278695 -0.000120779 -0.000264779 -4.0566e-05 -0.000104759
internal_weight=272 241 183 153 123
internal_count=272 241 183 153 123
is_linear=0
shrinkage=0.138639


Tree=34
num_leaves=7
num_cat=0
split_feature=0 6 0 3 1 1
split_gain=0.0122802 0.000709911 0.00227204 7.62394e-05 7.05417e-05 5.18324e-05
threshold=1.1002861644540516 1399.75966389974 2.493273079110105 66.119809002282764 0.79381877327179573 1.0320649968128734
decision_type=2 2 2 2 2 2
left_child=-1 2 3 -2 -5 -3
right_child=1 5 -4 4 -6 -7
leaf_value=0.0025177406565583755 1.313045761780351e-05 0 -0.0013525509835285092 -0.0002951279221715647 0 0.00030008803013491405
leaf_weight=33 42 31 30 35 85 30
leaf_count=33 42 31 30 35 85 30
internal_value=0.000150028 -0.000172512 -0.000313136 -5.95409e-05 -0.000128426 0.000178409
internal_weight=286 253 192 162 120 61
internal_count=286 253 192 162 120 61
is_linear=0
shrinkage=0.138639


Tree=35
num_leaves=7
num_cat=0
split_feature=2 8 2 2 1 5
split_gain=0.00404982 0.000723739 0.00095787 0.000276383 0.00017331 1.09845e-05
threshold=113.17750803629558 955.17464828491222 172.96022027822644 166.87124466555505 0.63026885537101751 0.29821266281131603
decision_type=2 2 2 2 2 2
left_child=-1 2 -2 5 -4 -3
right_child=1 3 4 -5 -6 -7
leaf_value=-0.0012425243806062538 0.00057978201187452766 -0.00054786240627724902 -0.00029803548595279763 0 5.2335235988824496e-05 -3.7764206491096194e-05
leaf_weight=52 79 30 35 30 34 30
leaf_count=52 79 30 35 30 34 30
internal_value=-0.000177785 4.93027e-05 0.000253237 -0.000224672 -5.76066e-05 -0.000396291
internal_weight=290 238 148 90 69 60
internal_count=290 238 148 90 69 60
is_linear=0
shrinkage=0.138639


Tree=36
num_leaves=6
num_cat=0
split_feature=1 1 6 1 4
split_gain=0.00166883 0.00212029 0.000266111 0.000512098 1.11697e-05
threshold=0.45441851936820205 0.66328216652057936 1411.8735351562502 1.2420287610253375 1.0000000180025095e-35
decision_type=2 2 2 2 2
left_child=-1 -2 3 4 -3
right_child=1 2 -4 -5 -6
leaf_value=-0.0007108867409650456 0.0011311678439653037 3.573387937529359e-05 0.00022843090345382562 -0.00060432840018088919 -4.2279368486380175e-05
leaf_weight=54 30 59 41 31 71
leaf_count=54 30 59 41 31 71
internal_value=-3.14456e-05 0.000113156 -3.09318e-05 -0.000133933 0
internal_weight=286 232 202 161 130
internal_count=286 232 202 161 130
is_linear=0
shrinkage=0.138639


Tree=37
num_leaves=6
num_cat=0
split_feature=2 3 0 0 0
split_gain=0.00837628 0.00156494 0.000958184 0.000193743 4.22185e-05
threshold=63.606794183904476 115.92837997725583 2.5001010576883957 1.3734137582460761 1.6900292324878488
decision_type=2 2 2 2 2
left_child=-1 2 3 -2 -5
right_child=1 -3 -4 4 -6
leaf_value=-0.0021362655464673978 -0.00038340699847766457 0.00094242998901560731 0.00067740366143461241 5.510581665662545e-05 -7.4898840783101927e-05
leaf_weight=30 34 38 32 58 107
leaf_count=30 34 38 32 58 107
internal_value=-7.50492e-05 0.000163235 0 -9.5983e-05 0
internal_weight=299 269 231 199 165
internal_count=299 269 231 199 165
is_linear=0
shrinkage=0.138639


Tree=38
num_leaves=6
num_cat=0
split_feature=1 1 3 1 5
split_gain=0.00839545 0.00164508 0.00102709 0.00105637 1.94718e-05
threshold=0.39636834578699592 0.66328216652057936 84.779002318019749 1.2607654088262201 1.0000000180025095e-35
decision_type=2 2 2 2 2
left_child=-1 -2 -3 4 -4
right_child=1 2 3 -5 -6
leaf_value=-0.0017190047700372734 0.00094999054362813454 -0.00071572190806016363 -0.00014105486793594905 0.00070804157707078403 0
leaf_weight=58 32 34 65 36 63
leaf_count=58 32 34 65 36 63
internal_value=-0.00028347 7.88186e-05 -5.13043e-05 6.80258e-05 -8.70089e-05
internal_weight=288 230 198 164 128
internal_count=288 230 198 164 128
is_linear=0
shrinkage=0.138639


Tree=39
num_leaves=7
num_cat=0
split_feature=1 3 3 1 3 5
split_gain=0.0212161 0.00137064 0.000747846 0.000260218 0.000787636 0.0001302
threshold=1.0000000180025095e-35 115.92837997725583 50.354183463406748 0.98599498167956556 101.43622077864336 1.0000000180025095e-35
decision_type=2 2 2 2 2 2
left_child=-1 2 -2 5 -5 -4
right_child=1 -3 3 4 -6 -7
leaf_value=-0.003183517120842915 -0.00080511011217557639 0.00062295949067743984 -0.00034839596658843629 0.00062797643495045351 -0.0002204528055376435 0
leaf_weight=48 34 38 60 30 41 34
leaf_count=48 34 38 60 30 41 34
internal_value=-0.000646558 -6.52315e-05 -0.00023326 -6.67469e-05 8.01274e-05 -0.000231889
internal_weight=285 237 199 165 71 94
internal_count=285 237 199 165 71 94
is_linear=0
shrinkage=0.138639


Tree=40
num_leaves=6
num_cat=0
split_feature=0 3 0 0 0
split_gain=0.04479 0.00061497 0.000262296 2.5813e-05 7.19342e-05
threshold=0.99558149973551446 19.885237371960184 2.4702787596791516 1.4341231267233405 1.6807150813280274
decision_type=2 2 2 2 2
left_child=-1 -2 3 -3 -5
right_child=1 2 -4 4 -6
leaf_value=0.0052631556172199855 0.00057512881436936475 -0.00031339796972671444 0.00025578185886572535 6.9347461734141605e-07 -0.00012956739598683883
leaf_weight=32 30 30 30 47 111
leaf_count=32 30 30 30 47 111
internal_value=0.000696946 1.09227e-05 -5.13126e-05 -0.000133012 -5.82018e-05
internal_weight=280 248 218 188 158
internal_count=280 248 218 188 158
is_linear=0
shrinkage=0.138639


Tree=41
num_leaves=8
num_cat=0
split_feature=0 1 4 0 1 1 2
split_gain=0.00510126 0.000624938 0.000485585 0.000584393 0.000175438 0.000130042 7.52491e-06
threshold=0.99558149973551446 0.39636834578699592 2008.9153917100696 2.493273079110105 1.0320649968128734 0.79602033317987009 159.16851962407432
decision_type=2 2 2 2 2 2 2
left_child=-1 -2 3 5 -4 -3 -7
right_child=1 2 4 -5 -6 6 -8
leaf_value=0.0017431953828433374 0.00054492910390461407 -0.00023562614474275802 0 -0.00074649291762208343 0.00040014552421488816 5.5816911372709799e-05 0
leaf_weight=33 31 45 31 31 32 44 37
leaf_count=33 31 45 31 31 32 44 37
internal_value=0.000224824 0 -8.45384e-05 -0.000230177 0.00018924 -4.19883e-05 7.73775e-06
internal_weight=284 251 220 157 63 126 81
internal_count=284 251 220 157 63 126 81
is_linear=0
shrinkage=0.138639


Tree=42
num_leaves=8
num_cat=0
split_feature=0 1 5 1 1 4 0
split_gain=0.0206277 0.000420634 0.000245957 0.000497284 0.000119131 0.000108201 4.18073e-05
threshold=1.1002861644540516 0.39636834578699592 0.42879632014339902 1.3014892042784441 0.68528490702694189 1.0000000180025095e-35 1.7667598514721314
decision_type=2 2 2 2 2 2 2
left_child=-1 -2 3 4 -3 -6 -7
right_child=1 2 -4 -5 5 6 -8
leaf_value=0.0035780695547396589 0.00043896140599472154 -0.00024424774773444593 0.00021113384540377881 -0.00061862009714434547 0.00017987567497075029 0 -0.00016401057273470536
leaf_weight=31 32 34 32 32 57 45 31
leaf_count=31 32 34 32 32 57 45 31
internal_value=0.000419116 0 -6.9547e-05 -0.000144791 -9.67148e-06 1.60584e-05 -4.17402e-05
internal_weight=294 263 231 199 167 133 76
internal_count=294 263 231 199 167 133 76
is_linear=0
shrinkage=0.138639


Tree=43
num_leaves=8
num_cat=0
split_feature=2 2 2 8 1 10 2
split_gain=0.000792834 0.00146251 0.000128629 0.000214239 4.28672e-05 1.4048e-05 6.72465e-06
threshold=89.152493370903883 129.64171799275672 172.96022027822644 956.17878066554226 0.95215200221245511 1558.3389892578127 198.48310429825744
decision_type=2 2 2 2 2 2 2
left_child=-1 -2 3 4 -3 -5 -4
right_child=1 2 6 5 -6 -7 -8
leaf_value=0.00051907569788121996 -0.00092319964460527756 0 -0.00018617414175224647 0 0.00040306270514669585 -9.0045006847393538e-05 0
leaf_weight=37 34 36 39 36 33 33 43
leaf_count=37 34 36 39 36 33 33 43
internal_value=-2.25762e-05 -0.000129482 0 8.83616e-05 0.000266699 -2.04189e-05 -0.000125858
internal_weight=291 254 220 138 69 69 82
internal_count=291 254 220 138 69 69 82
is_linear=0
shrinkage=0.138639


Tree=44
num_leaves=8
num_cat=0
split_feature=2 2 2 1 8 3 2
split_gain=0.0790764 0.00141927 0.000361243 7.43943e-05 0.000227716 0.000225617 0.000198961
threshold=77.907207012176528 126.44056353408679 143.28249891836319 0.63026885537101751 955.17464828491222 107.92878632798603 172.96022027822644
decision_type=2 2 2 2 2 2 2
left_child=-1 -2 -3 -4 6 -6 -5
right_child=1 2 3 4 5 -7 -8
leaf_value=-0.0070039850594228849 -0.00087594618670192243 0.00042025589865669698 -0.00017827566336228625 0.00039120598809614071 -0.00038005344794045138 0 0
leaf_weight=32 32 38 41 42 34 41 35
leaf_count=32 32 38 41 42 34 41 35
internal_value=-0.00091402 -5.74937e-05 4.59058e-05 -7.32953e-06 7.35705e-06 -0.000121164 0.000199455
internal_weight=295 263 231 193 152 75 77
internal_count=295 263 231 193 152 75 77
is_linear=0
shrinkage=0.138639


Tree=45
num_leaves=7
num_cat=0
split_feature=3 2 3 8 8 3
split_gain=0.000541135 0.000686399 0.00095763 8.03583e-05 9.89924e-05 9.65409e-05
threshold=115.92837997725583 89.152493370903883 50.354183463406748 956.17878066554226 960.05950927734386 92.960593745654151
decision_type=2 2 2 2 2 2
left_child=1 -1 -3 5 -5 -4
right_child=-2 2 3 4 -6 -7
leaf_value=0.00046780577140123674 0.00054247065510469497 -0.00067967216913870866 0 -0.00023358187650355822 0 0.00022038358114123303
leaf_weight=41 34 43 30 37 39 59
leaf_count=41 34 43 30 37 39 59
internal_value=5.27442e-05 -2.54815e-07 -0.000125358 0 -6.49238e-05 0.000113892
internal_weight=283 249 208 165 76 89
internal_count=283 249 208 165 76 89
is_linear=0
shrinkage=0.138639


Tree=46
num_leaves=7
num_cat=0
split_feature=3 1 1 2 1 8
split_gain=0.000724703 0.000416652 0.000616105 0.0011238 2.05812e-05 1.01992e-05
threshold=115.92837997725583 1.2420287610253375 0.21647121615533726 124.68603989572237 0.79602033317987009 958.08752441406261
decision_type=2 2 2 2 2 2
left_child=1 2 -1 -4 -5 -6
right_child=-2 -3 3 4 5 -7
leaf_value=-0.00036392826762474579 0.00054940648367397978 -0.00046102276311044241 0.00086956127152934526 -9.488303573353643e-05 5.7798612907858111e-05 0
leaf_weight=54 40 37 30 39 57 38
leaf_count=54 40 37 30 39 57 38
internal_value=1.71367e-05 -5.26548e-05 0 0.00015719 0 8.9535e-06
internal_weight=295 255 218 164 134 95
internal_count=295 255 218 164 134 95
is_linear=0
shrinkage=0.138639


Tree=47
num_leaves=7
num_cat=0
split_feature=2 1 3 6 3 2
split_gain=0.00355085 0.000356845 0.00011401 2.21229e-05 0.000149459 9.80692e-05
threshold=113.17750803629558 0.47104687185966404 115.92837997725583 1385.2712809244792 96.825563681418302 155.50827450639719
decision_type=2 2 2 2 2 2
left_child=-1 -2 3 4 -3 -5
right_child=1 2 -4 5 -6 -7
leaf_value=-0.0011749471817264379 0.00041561138106635271 -2.8943328749288223e-05 -0.00026358806999551539 0 0.00026292841565527192 -0.00024399962985047536
leaf_weight=55 34 44 32 43 41 30
leaf_count=55 34 44 32 43 41 30
internal_value=-0.000216838 1.12781e-05 -4.02201e-05 0 5.63205e-05 -4.30368e-05
internal_weight=279 224 190 158 85 73
internal_count=279 224 190 158 85 73
is_linear=0
shrinkage=0.138639


Tree=48
num_leaves=8
num_cat=0
split_feature=0 0 1 1 0 0 1
split_gain=0.018469 0.00069549 0.00046384 0.000153716 3.12969e-05 4.79431e-05 2.98734e-06
threshold=0.99558149973551446 2.66555974987318 0.45441851936820205 1.1821851987353613 1.4564045685379392 1.6807150813280274 1.0320649968128734
decision_type=2 2 2 2 2 2 2
left_child=-1 2 -2 4 -4 -6 -7
right_child=1 -3 3 -5 5 6 -8
leaf_value=0.0034141117262712294 0.00054191784663537329 -0.00059186646253278847 -0.00019798098909720532 0.0002517040773799282 6.3669724568445543e-05 -0.00010947367670466871 0
leaf_weight=30 30 31 30 31 51 59 30
leaf_count=30 30 31 30 31 51 59 30
internal_value=0.000376653 0 6.79938e-05 0 -6.49122e-05 0 -8.66252e-05
internal_weight=292 262 231 201 170 140 89
internal_count=292 262 231 201 170 140 89
is_linear=0
shrinkage=0.138639


Tree=49
num_leaves=7
num_cat=0
split_feature=0 3 3 3 3 3
split_gain=0.0174553 0.001011 0.000155528 0.000143879 8.23412e-05 0.000124553
threshold=1.1002861644540516 98.827668484032031 19.885237371960184 76.31798431097107 115.92837997725583 107.18100665982554
decision_type=2 2 2 2 2 2
left_child=-1 2 -2 -4 5 -3
right_child=1 4 3 -5 -6 -7
leaf_value=-0.0031682198725834637 0.00079614911604374114 -0.00016884026952040026 0 0.00037563602168661696 -0.00023470611744162283 0.00012511492416620283
leaf_weight=30 35 42 32 44 32 65
leaf_count=30 35 42 32 44 32 65
internal_value=-0.000214873 0.00016306 0.000473382 0.000223963 -5.31206e-05 0
internal_weight=280 250 111 76 139 107
internal_count=280 250 111 76 139 107
is_linear=0
shrinkage=0.138639


Tree=50
num_leaves=6
num_cat=0
split_feature=1 1 4 2 1
split_gain=0.000741505 0.00305186 0.000211397 0.000275209 0.000222416
threshold=0.46817752718925482 0.71492925333221236 1975.2900756835941 157.44617354075118 1.210770567079589
decision_type=2 2 2 2 2
left_child=-1 -2 3 -3 -4
right_child=1 2 4 -5 -6
leaf_value=-0.00036145943309781348 0.0013809001620727177 -0.00048982662601145628 0 0 0.00036484197364551629
leaf_weight=59 30 33 86 43 32
leaf_count=59 30 33 86 43 32
internal_value=3.42084e-05 0.000166857 -1.78611e-05 -0.000212104 6.55656e-05
internal_weight=283 224 194 76 118
internal_count=283 224 194 76 118
is_linear=0
shrinkage=0.138639


Tree=51
num_leaves=7
num_cat=0
split_feature=0 7 0 3 1 2
split_gain=0.0265113 0.000397022 0.000630517 0.000316902 0.000147375 4.75879e-06
threshold=0.99558149973551446 0.36523437500000006 2.5232127004789442 50.354183463406748 0.72369148144505557 141.79715538825567
decision_type=2 2 2 2 2 2
left_child=-1 2 3 -2 -5 -6
right_child=1 -3 -4 4 5 -7
leaf_value=0.0040417678039990088 0.00036531518952693447 0.00028868223587563354 -0.00064731252586527649 -0.00034797270555136554 2.1301794930231248e-05 -3.1823220868351437e-05
leaf_weight=31 31 52 32 31 30 71
leaf_count=31 31 52 32 31 30 71
internal_value=0.00047325 -1.1044e-05 -0.000122557 0 -0.000101886 0
internal_weight=278 247 195 163 132 101
internal_count=278 247 195 163 132 101
is_linear=0
shrinkage=0.138639


Tree=52
num_leaves=7
num_cat=0
split_feature=2 3 2 3 1 3
split_gain=0.00685427 0.00117942 0.000995669 0.00047788 0.000209956 7.95636e-05
threshold=77.907207012176528 76.31798431097107 135.01016230003859 19.885237371960184 1.210770567079589 113.11501967719543
decision_type=2 2 2 2 2 2
left_child=-1 3 -3 -2 5 -4
right_child=1 2 4 -5 -6 -7
leaf_value=0.0018243619450291901 -4.7216254445756535e-05 0.00077577200348827552 -4.4961178519063986e-06 -0.00096157518559949454 0.00021702692282537554 -0.00032742049380079347
leaf_weight=38 38 30 98 30 34 32
leaf_count=38 38 30 98 30 34 32
internal_value=0.00017605 -6.6751e-05 8.57105e-05 -0.000557544 -2.38334e-05 -0.000132072
internal_weight=300 262 194 68 164 130
internal_count=300 262 194 68 164 130
is_linear=0
shrinkage=0.138639


Tree=53
num_leaves=6
num_cat=0
split_feature=3 0 0 3 0
split_gain=0.00609078 0.000771799 0.000204497 6.09939e-05 5.10295e-05
threshold=13.282525062561037 1.5171450426181161 2.493273079110105 96.147912726063666 1.72085612513343
decision_type=2 2 2 2 2
left_child=-1 -2 3 -3 -5
right_child=1 2 -4 4 -6
leaf_value=-0.0013758125847243409 0.00066275732447399047 8.3012978662818656e-06 0.00029110343671736027 0 -0.00018906027152748231
leaf_weight=58 43 47 39 39 64
leaf_count=58 43 47 39 39 64
internal_value=-0.00014562 0.000157247 2.54346e-06 -4.28607e-05 -0.000116452
internal_weight=290 232 189 150 103
internal_count=290 232 189 150 103
is_linear=0
shrinkage=0.138639


Tree=54
num_leaves=8
num_cat=0
split_feature=0 3 3 3 8 6 2
split_gain=0.0105176 0.00112931 0.000286671 0.000440059 0.000159656 0.000385221 4.00991e-10
threshold=0.99558149973551446 22.97031746983669 72.566530388082924 100.43021611659115 960.05950927734386 1388.8994384765626 152.9804313864027
decision_type=2 2 2 2 2 2 2
left_child=-1 -2 -3 -4 5 -5 -7
right_child=1 2 3 4 -6 6 -8
leaf_value=-0.0026169753312119668 0.00066399932963456993 -0.00052527378738839205 0.0002423359817326555 -0.00063692324864873221 0 0 -4.5001593533798015e-07
leaf_weight=30 35 31 54 35 32 35 34
leaf_count=30 35 31 54 35 32 35 34
internal_value=-0.000327416 -1.5384e-06 -0.000141186 -4.08101e-05 -0.000195843 -0.000279484 0
internal_weight=286 256 221 190 136 104 69
internal_count=286 256 221 190 136 104 69
is_linear=0
shrinkage=0.138639


Tree=55
num_leaves=6
num_cat=0
split_feature=2 1 2 1 8
split_gain=0.00272584 0.000412734 0.000569265 0.000311729 5.35574e-05
threshold=77.907207012176528 0.47104687185966404 129.64171799275672 1.2607654088262201 953.42096099853529
decision_type=2 2 2 2 2
left_child=-1 -2 -3 4 -4
right_child=1 2 3 -5 -6
leaf_value=0.00128983471622921 0.00044123746678988168 -0.00052670418674707431 3.0070636118036784e-05 0.00040150637160060807 -0.00010459797430063983
leaf_weight=35 36 35 59 35 88
leaf_count=35 36 35 59 35 88
internal_value=0.000208421 1.96542e-05 -3.24919e-05 4.27243e-05 -1.51769e-05
internal_weight=288 253 217 182 147
internal_count=288 253 217 182 147
is_linear=0
shrinkage=0.138639


Tree=56
num_leaves=8
num_cat=0
split_feature=1 0 4 1 0 0 0
split_gain=0.00285345 0.000856848 0.000126785 0.000275622 0.000223343 1.68732e-06 1.40327e-06
threshold=0.21647121615533726 1.3994674694629199 1991.434265136719 1.210770567079589 2.3373441853021322 1.7135408006114223 1.6900292324878488
decision_type=2 2 2 2 2 2 2
left_child=-1 -2 4 5 6 -4 -3
right_child=1 2 3 -5 -6 -7 -8
leaf_value=-0.0010117125337875911 0.00074472156514282387 2.8141284684361829e-05 0 0.0004310165626480732 -0.00038575174091442718 -3.0415052382808871e-05 0
leaf_weight=49 30 30 38 31 33 31 52
leaf_count=49 30 30 38 31 33 31 52
internal_value=-7.94809e-05 9.85688e-05 0 0.000108069 -0.000101295 0 0
internal_weight=294 245 215 100 115 69 82
internal_count=294 245 215 100 115 69 82
is_linear=0
shrinkage=0.138639


Tree=57
num_leaves=7
num_cat=0
split_feature=2 3 1 3 3 2
split_gain=0.00164665 0.000530718 0.000504175 0.000198267 0.000123466 7.35417e-05
threshold=89.152493370903883 50.354183463406748 1.3146110436970024 117.16718920005748 109.93650429908557 166.87124466555505
decision_type=2 2 2 2 2 2
left_child=-1 -2 3 4 5 -3
right_child=1 2 -4 -5 -6 -7
leaf_value=0.00089590189079904884 -0.00047687301096123864 -0.00015192022846073427 0.00050220334974904462 -0.00034588711435737466 0.00024558939826523871 1.7097957092322381e-06
leaf_weight=35 45 71 32 33 30 34
leaf_count=35 45 71 32 33 30 34
internal_value=4.89861e-05 -6.27848e-05 1.13552e-05 -6.01604e-05 0 -5.40765e-05
internal_weight=280 245 200 168 135 105
internal_count=280 245 200 168 135 105
is_linear=0
shrinkage=0.138639


Tree=58
num_leaves=9
num_cat=0
split_feature=8 1 1 0 1 5 0 1
split_gain=0.00119011 0.000911144 0.00166801 0.00135457 0.000798154 0.000156865 0.000166241 3.38959e-06
threshold=955.17464828491222 0.46817752718925482 0.7414870184528114 1.3237870097160342 1.165654907963984 0.42879632014339902 1.7868281980203085 0.91180582515773378
decision_type=2 2 2 2 2 2 2 2
left_child=1 3 -3 -1 7 6 -2 -4
right_child=5 2 4 -5 -6 -7 -8 -9
leaf_value=-0.00058873861838166391 0 0.0014796047556311397 0 0.00058872496398300399 0.00074625342104112221 0 -0.00051910999941476223 -4.0841554836587858e-05
leaf_weight=35 31 30 31 32 34 30 30 35
leaf_count=35 31 30 31 32 34 30 30 35
internal_value=0.000193489 0.000391657 0.000600579 0 0.000237171 -0.000176686 -0.000303244 0
internal_weight=288 197 130 67 100 91 61 66
internal_count=288 197 130 67 100 91 61 66
is_linear=0
shrinkage=0.138639


Tree=59
num_leaves=7
num_cat=0
split_feature=3 1 1 3 1 8
split_gain=0.00114393 0.000429442 0.000320129 0.00146863 7.64753e-05 4.0429e-05
threshold=115.92837997725583 1.2796571772048044 0.42769902005794619 66.119809002282764 0.98599498167956556 953.16350119454535
decision_type=2 2 2 2 2 2
left_child=1 2 -1 -4 5 -5
right_child=-2 -3 3 4 -6 -7
leaf_value=-0.00030971934207751559 0.00071252322894112166 -0.00058331202300865304 0.00083921320309522619 -0.00036501476660977451 0 -1.3303395877215965e-05
leaf_weight=59 31 32 33 31 46 58
leaf_count=59 31 32 33 31 46 58
internal_value=-9.81212e-06 -0.000126608 -2.9568e-05 4.2184e-05 -0.000132328 -0.000204846
internal_weight=290 259 227 168 135 89
internal_count=290 259 227 168 135 89
is_linear=0
shrinkage=0.138639


Tree=60
num_leaves=7
num_cat=0
split_feature=0 1 3 1 3 10
split_gain=0.00417106 0.000506693 0.000593798 0.000131549 2.2318e-05 1.14849e-05
threshold=1.1002861644540516 1.3988902782476704 67.766802570830464 0.81991561619620434 106.25369785017411 1555.4175415039065
decision_type=2 2 2 2 2 2
left_child=-1 2 -2 -4 -5 -6
right_child=1 -3 3 4 5 -7
leaf_value=0.00156387524547948 0.00041175723716571926 -0.00055864645991224326 -0.00030961376354630412 3.8377130667567365e-05 -0.00011239929211324937 0
leaf_weight=30 51 30 44 42 42 30
leaf_count=30 51 30 44 42 42 30
internal_value=0.00012127 -6.0515e-05 0 -0.000113248 0 -6.89065e-05
internal_weight=269 239 209 158 114 72
internal_count=269 239 209 158 114 72
is_linear=0
shrinkage=0.138639


Tree=61
num_leaves=8
num_cat=0
split_feature=0 3 7 0 1 3 0
split_gain=0.0301972 0.000491141 0.000398329 0.000613571 0.000348693 5.38547e-05 2.60095e-06
threshold=0.99558149973551446 19.885237371960184 0.67519617073576155 2.4005402039836281 0.72369148144505557 94.61567339333233 1.7513071680810699
decision_type=2 2 2 2 2 2 2
left_child=-1 -2 3 4 -3 -6 -7
right_child=1 2 -4 -5 5 6 -8
leaf_value=0.0042923142458354217 0.00035168983968754495 -0.00043458051552295994 0.00015193656685075148 -0.0007799128528441884 0.00016185328390308002 0 -4.9821051026849673e-05
leaf_weight=30 32 39 37 35 33 41 42
leaf_count=30 32 39 37 35 33 41 42
internal_value=0.000407991 -8.05256e-05 -0.000170107 -0.00026272 -9.4813e-05 0 -2.71834e-05
internal_weight=289 259 227 190 155 116 83
internal_count=289 259 227 190 155 116 83
is_linear=0
shrinkage=0.138639


Tree=62
num_leaves=7
num_cat=0
split_feature=1 1 6 0 3 0
split_gain=0.000330829 0.00102305 0.000273413 0.000996716 2.29053e-05 7.80035e-07
threshold=0.46817752718925482 0.72369148144505557 1409.1881679650512 2.4005402039836281 94.61567339333233 1.8566825201417008
decision_type=2 2 2 2 2 2
left_child=-1 -2 3 4 -3 -6
right_child=1 2 -4 -5 5 -7
leaf_value=-0.00032172938933178923 0.00070375683214096523 0.00010156456146822619 0.00015181299179937825 -0.00083156041765867713 0 -4.4988429772983312e-05
leaf_weight=57 34 33 48 31 50 32
leaf_count=57 34 33 48 31 50 32
internal_value=-2.47015e-05 3.04394e-05 -7.20983e-05 -0.000184082 0 -2.5958e-05
internal_weight=285 228 194 146 115 82
internal_count=285 228 194 146 115 82
is_linear=0
shrinkage=0.138639


Tree=63
num_leaves=7
num_cat=0
split_feature=2 2 3 1 2 2
split_gain=0.00674476 0.000238224 0.000112639 0.0002444 0.000238804 1.0396e-05
threshold=113.17750803629558 137.63112407556775 96.147912726063666 0.63026885537101751 157.81401585305491 149.39128764969706
decision_type=2 2 2 2 2 2
left_child=-1 -2 3 -3 5 -4
right_child=1 2 4 -5 -6 -7
leaf_value=-0.0016957825705353085 0.00037274065124017332 -3.2308281311958933e-05 0 0.00036929609677282865 -0.00028758602460075188 8.1051936965348089e-05
leaf_weight=47 32 32 35 38 64 34
leaf_count=47 32 32 35 38 64 34
internal_value=-0.000248178 4.24575e-05 0 0.000120535 -8.91385e-05 2.62135e-05
internal_weight=282 235 203 70 133 69
internal_count=282 235 203 70 133 69
is_linear=0
shrinkage=0.138639


Tree=64
num_leaves=7
num_cat=0
split_feature=2 2 2 4 1 4
split_gain=0.00666964 0.000557583 0.000244698 0.000292267 0.000109835 3.27651e-05
threshold=77.907207012176528 126.44056353408679 172.96022027822644 2002.1520669871365 0.63026885537101751 2015.1299255371096
decision_type=2 2 2 2 2 2
left_child=-1 -2 3 -3 -4 -5
right_child=1 2 4 5 -6 -7
leaf_value=0.0019036226538053499 -0.00055940045315780863 0.00033859844452411577 -0.00031870439763223021 -0.0001359813994244011 0 0
leaf_weight=34 32 70 35 30 45 40
leaf_count=34 32 70 35 30 45 40
internal_value=0.000188551 -4.81038e-05 1.07707e-05 0.000141224 -0.000148598 0
internal_weight=286 252 220 140 80 70
internal_count=286 252 220 140 80 70
is_linear=0
shrinkage=0.138639


Tree=65
num_leaves=6
num_cat=0
split_feature=0 1 4 2 1
split_gain=0.0092181 0.000700007 0.000359626 0.000237648 9.64192e-05
threshold=0.99558149973551446 0.39636834578699592 2008.9153917100696 171.14498202006024 1.1111772368896975
decision_type=2 2 2 2 2
left_child=-1 -2 3 -3 -4
right_child=1 2 4 -5 -6
leaf_value=0.0023146663363917482 0.00051537827224240238 -0.00036259797324616724 0 0 0.00025904052928246149
leaf_weight=32 32 111 41 57 30
leaf_count=32 32 111 41 57 30
internal_value=0.000229782 -2.71423e-05 -0.000129556 -0.000247736 7.58765e-05
internal_weight=303 271 239 168 71
internal_count=303 271 239 168 71
is_linear=0
shrinkage=0.138639


Tree=66
num_leaves=8
num_cat=0
split_feature=1 0 4 1 2 2 1
split_gain=0.0262413 0.00189198 0.000165004 0.000375541 7.70109e-05 1.51697e-05 3.37823e-05
threshold=1.0000000180025095e-35 1.3734137582460761 2002.780008951823 1.165654907963984 154.12771349625882 148.04574694159416 0.82294774155075845
decision_type=2 2 2 2 2 2 2
left_child=-1 -2 3 5 -4 -3 -7
right_child=1 2 4 -5 -6 6 -8
leaf_value=-0.0035952738675009035 0.00097905257921737958 0 0.00018271905414655047 -0.00060619740680481395 -4.8706425355916116e-05 -0.00016444773738259947 0
leaf_weight=41 32 30 38 30 30 31 42
leaf_count=41 32 30 38 30 30 31 42
internal_value=-0.000530936 3.76486e-05 -0.000102106 -0.000196731 8.12778e-06 -8.19496e-06 -6.22664e-05
internal_weight=274 233 201 133 68 103 73
internal_count=274 233 201 133 68 103 73
is_linear=0
shrinkage=0.138639


Tree=67
num_leaves=7
num_cat=0
split_feature=0 2 4 0 2 0
split_gain=0.00292517 0.000456896 0.000101738 0.000708177 0.00020645 6.30986e-05
threshold=1.3237870097160342 198.48310429825744 2004.9301696777345 2.1547502756227979 135.01016230003859 1.8009850212688689
decision_type=2 2 2 2 2 2
left_child=-1 2 3 4 -2 -4
right_child=1 -3 5 -5 -6 -7
leaf_value=-0.0010484768068137217 0.00036556801512412958 0.0005243460999021217 0 -0.00063083238133700506 0 0.00027457299699789537
leaf_weight=47 30 36 43 30 68 31
leaf_count=47 30 36 43 30 68 31
internal_value=-8.59714e-05 9.60192e-05 0 -6.30647e-05 7.56087e-05 0.000135362
internal_weight=285 238 202 128 98 74
internal_count=285 238 202 128 98 74
is_linear=0
shrinkage=0.138639


Tree=68
num_leaves=7
num_cat=0
split_feature=2 1 2 4 0 2
split_gain=0.00636294 0.000713253 0.000237566 0.0002321 0.000182669 3.35789e-05
threshold=77.907207012176528 0.47104687185966404 146.71397728125797 1994.4475097656252 2.4005402039836281 169.99443227118192
decision_type=2 2 2 2 2 2
left_child=-1 -2 3 -3 5 -4
right_child=1 2 4 -5 -6 -7
leaf_value=0.0020498074241852601 0.00056455611536844767 -0.00049331994754531368 0 0 0.00030678057786020873 -0.00012593187503918418
leaf_weight=30 36 37 68 34 31 50
leaf_count=30 36 37 68 34 31 50
internal_value=0.000267954 9.4949e-06 -6.56327e-05 -0.000271458 1.49801e-06 -4.16652e-05
internal_weight=286 256 220 71 149 118
internal_count=286 256 220 71 149 118
is_linear=0
shrinkage=0.138639


Tree=69
num_leaves=8
num_cat=0
split_feature=1 0 3 1 1 0 3
split_gain=0.0139156 0.00133282 0.000394308 0.00067392 7.50398e-05 2.25003e-06 2.31689e-05
threshold=1.0000000180025095e-35 1.3824188628858007 59.822317729790115 1.3146110436970024 0.81991561619620434 1.7667598514721314 105.64194104827023
decision_type=2 2 2 2 2 2 2
left_child=-1 -2 -3 4 -4 -6 -7
right_child=1 2 3 -5 5 6 -8
leaf_value=-0.0024258243357417838 0.00087523440407288368 -0.0004579264431894709 -0.00021599852825316104 0.00058568082752393944 2.104604019303348e-05 0 -0.0001134057063826152
leaf_weight=46 32 31 38 33 52 30 32
leaf_count=46 32 31 38 33 52 30 32
internal_value=-0.000312793 9.03027e-05 -1.52573e-05 3.83811e-05 -5.772e-05 0 -1.66972e-05
internal_weight=294 248 216 185 152 114 62
internal_count=294 248 216 185 152 114 62
is_linear=0
shrinkage=0.138639


Tree=70
num_leaves=6
num_cat=0
split_feature=2 1 2 0 2
split_gain=0.00771495 0.000860116 0.000189923 0.000512006 1.26769e-05
threshold=63.606794183904476 0.47104687185966404 141.79715538825567 2.4005402039836281 169.99443227118192
decision_type=2 2 2 2 2
left_child=-1 -2 -3 4 -4
right_child=1 2 3 -5 -6
leaf_value=-0.0021157122457481268 0.00065035434499143463 -0.00022152823222354882 0 0.00053160348317531265 -8.6984052956035179e-05
leaf_weight=30 40 60 80 32 49
leaf_count=30 40 60 80 32 49
internal_value=-0.000145761 8.90709e-05 0 5.54123e-05 -3.44367e-05
internal_weight=291 261 221 161 129
internal_count=291 261 221 161 129
is_linear=0
shrinkage=0.138639


Tree=71
num_leaves=7
num_cat=0
split_feature=2 3 2 0 8 2
split_gain=0.00604771 0.000723278 0.000857009 0.0003752 1.00032e-05 4.89777e-06
threshold=63.606794183904476 50.354183463406748 135.01016230003859 2.452315521167006 959.34731140136728 157.81401585305491
decision_type=2 2 2 2 2 2
left_child=-1 -2 -3 4 5 -4
right_child=1 2 3 -5 -6 -7
leaf_value=0.0020120873253156243 -0.00040568879872646249 0.0006999702602803415 0 0.00042258331881205155 0 -0.00016818775365229951
leaf_weight=30 50 40 58 30 31 46
leaf_count=30 50 40 58 30 31 46
internal_value=0.000274325 2.05652e-05 0.000156409 0 -9.01287e-05 -0.000110602
internal_weight=285 255 205 165 135 104
internal_count=285 255 205 165 135 104
is_linear=0
shrinkage=0.138639


Tree=72
num_leaves=8
num_cat=0
split_feature=0 3 3 0 2 6 4
split_gain=0.0294093 0.00133533 0.000366813 0.000134994 7.78045e-05 0.00027467 1.4711e-05
threshold=1.1002861644540516 19.885237371960184 72.566530388082924 1.487521330961137 166.28213708711709 1388.8994384765626 1975.2900756835941
decision_type=2 2 2 2 2 2 2
left_child=-1 -2 -3 -4 5 -5 -6
right_child=1 2 3 4 6 -7 -8
leaf_value=0.0043054458069717418 0.00073162981681926774 -0.00060312781837426317 -0.00029916853924915899 -0.00032225790049701322 0 7.8029996685343708e-05 0.00018960615267369914
leaf_weight=30 33 30 31 49 30 49 30
leaf_count=30 33 30 31 49 30 49 30
internal_value=0.000480766 -1.43257e-05 -0.000162385 -5.30392e-05 0 -7.36637e-05 0.000121243
internal_weight=282 252 219 189 158 98 60
internal_count=282 252 219 189 158 98 60
is_linear=0
shrinkage=0.138639


Tree=73
num_leaves=7
num_cat=0
split_feature=0 0 2 2 0 0
split_gain=0.014591 0.000708165 0.000427606 0.000240896 4.00235e-05 7.70096e-06
threshold=1.1002861644540516 2.66555974987318 121.31415360062212 197.60910687568864 1.4804603758259358 1.8890633401386243
decision_type=2 2 2 2 2 2
left_child=-1 2 -2 4 -4 -6
right_child=1 -3 3 -5 5 -7
leaf_value=-0.0030870313273716572 0.00049626188627997748 -0.00061754265568168766 -0.00024508055274614248 0.0003046382539602919 0 -5.263812837855611e-05
leaf_weight=30 32 30 33 30 80 54
leaf_count=30 32 30 33 30 80 54
internal_value=-0.000388167 -1.20762e-05 5.32713e-05 -1.92288e-07 -9.26841e-05 -9.64698e-06
internal_weight=289 259 229 197 167 134
internal_count=289 259 229 197 167 134
is_linear=0
shrinkage=0.138639


Tree=74
num_leaves=7
num_cat=0
split_feature=0 1 3 1 0 1
split_gain=0.00459439 0.00111508 0.000471044 0.000889448 4.86543e-05 2.91012e-05
threshold=1.3237870097160342 0.42769902005794619 75.090463385962622 1.3014892042784441 1.971713640860149 0.81991561619620434
decision_type=2 2 2 2 2 2
left_child=-1 -2 -3 4 5 -4
right_child=1 2 3 -5 -6 -7
leaf_value=-0.0014031230637039872 0.00078605249352645123 -0.00045888815532442402 -0.00011671856356039044 0.00066865501654495495 -0.00025883028730032615 0
leaf_weight=46 30 42 37 31 32 74
leaf_count=46 30 42 37 31 32 74
internal_value=-0.000188866 3.55207e-05 -5.65712e-05 1.82316e-05 -0.000100336 0
internal_weight=292 246 216 174 143 111
internal_count=292 246 216 174 143 111
is_linear=0
shrinkage=0.138639


Tree=75
num_leaves=7
num_cat=0
split_feature=2 1 3 0 1 0
split_gain=0.00835704 0.00117561 0.000281185 0.000278412 1.58129e-05 2.78465e-06
threshold=100.72342998239148 0.47104687185966404 78.785231593682738 2.3763540983200078 0.81991561619620434 1.8755962004032558
decision_type=2 2 2 2 2 2
left_child=-1 -2 -3 4 -4 -6
right_child=1 2 3 -5 5 -7
leaf_value=-0.0020212548152193522 0.00077205601299262675 -0.00037176795669283531 -0.00010503081086423953 0.00038063115732139629 1.1779886301207503e-05 -3.2713725763103434e-05
leaf_weight=38 36 36 40 32 65 37
leaf_count=38 36 36 40 32 65 37
internal_value=-0.000209707 7.66311e-05 -2.95462e-05 1.75641e-05 -3.53088e-05 0
internal_weight=284 246 210 174 142 102
internal_count=284 246 210 174 142 102
is_linear=0
shrinkage=0.138639


Tree=76
num_leaves=8
num_cat=0
split_feature=1 1 2 1 3 2 6
split_gain=0.00128942 0.00230416 0.00198606 0.000297641 0.000260057 1.84191e-05 7.0791e-06
threshold=0.45441851936820205 0.68528490702694189 115.50658980537865 1.3988902782476704 86.361869082491566 143.80247117747436 1395.603493430398
decision_type=2 2 2 2 2 2 2
left_child=2 -2 -1 4 -3 -6 -7
right_child=1 3 -4 -5 5 6 -8
leaf_value=-0.0013132808099034961 0.0011691194016069694 0.00033402736337298652 3.4811804264863911e-05 -0.00042578657929168894 -0.00015870684981868818 0 -5.3209550922601367e-05
leaf_weight=31 30 36 34 30 31 53 44
leaf_count=31 30 36 34 30 31 53 44
internal_value=-3.04964e-05 0.000109176 -0.000568738 -4.78609e-05 0 -6.32922e-05 0
internal_weight=289 224 65 194 164 128 97
internal_count=289 224 65 194 164 128 97
is_linear=0
shrinkage=0.138639


Tree=77
num_leaves=7
num_cat=0
split_feature=1 1 3 1 0 0
split_gain=0.00360685 0.00123814 0.00013765 0.00116453 2.19075e-05 4.83103e-06
threshold=0.21647121615533726 0.64491551066563801 78.785231593682738 1.3258567918844659 1.8755962004032558 1.487521330961137
decision_type=2 2 2 2 2 2
left_child=-1 -2 -3 4 5 -4
right_child=1 2 3 -5 -6 -7
leaf_value=-0.0011286351116940167 0.00091068170769626942 -0.00023802569267923293 -5.2214806640100816e-05 0.00080558767591737889 -0.00016472934948088283 0
leaf_weight=48 30 32 30 30 44 73
leaf_count=48 30 32 30 30 44 73
internal_value=-7.02052e-05 0.000135279 0 5.77008e-05 -7.64562e-05 0
internal_weight=287 239 209 177 147 103
internal_count=287 239 209 177 147 103
is_linear=0
shrinkage=0.138639


Tree=78
num_leaves=8
num_cat=0
split_feature=0 1 2 2 1 8 0
split_gain=0.00497885 0.000355948 0.000221298 0.000125673 0.00029474 8.26063e-08 2.07837e-06
threshold=0.99558149973551446 1.3146110436970024 198.48310429825744 121.31415360062212 0.71492925333221236 1.0000000180025095e-35 1.8009850212688689
decision_type=2 2 2 2 2 2 2
left_child=-1 2 3 -2 -5 -6 -7
right_child=1 -3 -4 4 5 6 -8
leaf_value=0.0017398281543986945 0.00018531290640753356 -0.00043280045995467304 0.00034431982521820334 -0.0004519629350459977 6.375804285433576e-06 0 -3.3284616926212164e-05
leaf_weight=30 30 33 32 30 35 68 32
leaf_count=30 30 33 32 30 35 68 32
internal_value=0.000160392 -2.51857e-05 1.70866e-05 -1.52078e-05 -8.74194e-05 0 0
internal_weight=290 260 227 195 165 135 100
internal_count=290 260 227 195 165 135 100
is_linear=0
shrinkage=0.138639


Tree=79
num_leaves=5
num_cat=0
split_feature=1 1 3 1
split_gain=0.00104725 0.00029849 0.000251739 6.51705e-05
threshold=0.47104687185966404 1.3014892042784441 81.004096343941015 0.81991561619620434
decision_type=2 2 2 2
left_child=-1 2 -2 -4
right_child=1 -3 3 -5
leaf_value=0.00053132054442993294 0.00031339693642525517 -0.00042336034894042718 -0.00019892514462230753 0
leaf_weight=72 39 31 43 111
leaf_count=72 39 31 43 111
internal_value=7.93435e-05 -4.89493e-05 0 -6.20995e-05
internal_weight=296 224 193 154
internal_count=296 224 193 154
is_linear=0
shrinkage=0.138639


Tree=80
num_leaves=7
num_cat=0
split_feature=0 1 2 1 0 6
split_gain=0.000622077 0.000695474 0.00201639 6.47626e-05 2.49041e-05 8.91329e-06
threshold=2.5966861125583391 0.46817752718925482 135.01016230003859 0.75967923990078723 2.0176857855584891 1395.603493430398
decision_type=2 2 2 2 2 2
left_child=1 -1 -3 -4 5 -5
right_child=-2 2 3 4 -6 -7
leaf_value=-0.00035830991598881823 -0.00057568352230334284 0.00093824917348003117 -0.00020434180009339673 8.3504714026405336e-05 -8.692594806682379e-05 0
leaf_weight=53 31 47 32 49 33 37
leaf_count=53 31 47 32 49 33 37
internal_value=-1.58069e-05 4.00709e-05 0.000178687 -4.10153e-05 0 4.69667e-05
internal_weight=282 251 198 151 119 86
internal_count=282 251 198 151 119 86
is_linear=0
shrinkage=0.138639


Tree=81
num_leaves=7
num_cat=0
split_feature=2 3 3 2 7 2
split_gain=0.00822663 0.00025161 0.000671971 0.000138865 0.000106945 3.17884e-05
threshold=63.606794183904476 75.090463385962622 22.97031746983669 143.28249891836319 0.18276977539062503 162.17958383277838
decision_type=2 2 2 2 2 2
left_child=-1 2 -2 -3 5 -5
right_child=1 3 -4 4 -6 -7
leaf_value=0.0022068072876133033 0 0.00021663400691631068 -0.00072857215645546374 -0.0002706104347213227 6.2836608782884882e-05 0
leaf_weight=31 40 53 30 30 57 47
leaf_count=31 40 53 30 30 57 47
internal_value=0.000211106 -3.93435e-05 -0.000264035 2.01127e-05 -2.22931e-05 -0.000152418
internal_weight=288 257 70 187 134 77
internal_count=288 257 70 187 134 77
is_linear=0
shrinkage=0.138639


Tree=82
num_leaves=6
num_cat=0
split_feature=0 0 0 2 0
split_gain=0.000393433 0.000108767 0.000246929 1.24259e-05 3.9951e-05
threshold=0.99558149973551446 2.7092159616903948 2.093084032899641 183.13240127563481 1.4341231267233405
decision_type=2 2 2 2 2
left_child=-1 2 3 4 -2
right_child=1 -3 -4 -5 -6
leaf_value=0.00051696301090384787 -0.00016703308164494211 -0.0001883105224883317 0.00031747807349220364 4.0142407870670218e-05 0
leaf_weight=34 30 30 52 31 105
leaf_count=34 30 30 52 31 105
internal_value=9.58904e-05 9.1855e-06 6.3808e-05 0 -3.62112e-05
internal_weight=282 248 218 166 135
internal_count=282 248 218 166 135
is_linear=0
shrinkage=0.138639


Tree=83
num_leaves=7
num_cat=0
split_feature=0 0 1 1 6 1
split_gain=0.00140174 0.000382952 7.58713e-05 0.000105287 4.86184e-05 3.2526e-05
threshold=0.99558149973551446 2.4702787596791516 0.55676406730691475 0.75405412614566336 1396.0315856933596 1.0373060545540638
decision_type=2 2 2 2 2 2
left_child=-1 2 -2 -4 5 -5
right_child=1 -3 3 4 -6 -7
leaf_value=0.00096276019384687269 0.00010205709910969894 0.00039012709926364411 -0.00029943708854522454 0 -0.00011697491546660052 0.0001353117842147109
leaf_weight=33 31 44 33 62 59 34
leaf_count=33 31 44 33 62 59 34
internal_value=0.000158802 2.44567e-05 -3.03828e-05 -8.22426e-05 0 2.67589e-05
internal_weight=296 263 219 188 155 96
internal_count=296 263 219 188 155 96
is_linear=0
shrinkage=0.138639


Tree=84
num_leaves=6
num_cat=0
split_feature=0 0 3 3 8
split_gain=0.00493563 0.000972926 0.000504831 9.8718e-05 4.6899e-06
threshold=1.1002861644540516 2.5298622131347659 59.822317729790115 112.5856725776549 955.95904875454846
decision_type=2 2 2 2 2
left_child=-1 2 -2 4 -4
right_child=1 -3 3 -5 -6
leaf_value=-0.0016623179681974467 0.0004120352338482146 0.00078412216570531367 -3.3766999265755667e-05 -0.00027288174776191081 0
leaf_weight=30 41 31 75 49 52
leaf_count=30 41 31 75 49 52
internal_value=-8.63252e-05 0.00010643 0 -0.000106793 0
internal_weight=278 248 217 176 127
internal_count=278 248 217 176 127
is_linear=0
shrinkage=0.138639


Tree=85
num_leaves=7
num_cat=0
split_feature=3 4 3 9 4 3
split_gain=0.00240442 0.00036978 0.000497847 2.80699e-05 3.83261e-05 7.0502e-06
threshold=1.0000000180025095e-35 1988.329772949219 92.960593745654151 0.18299865722656253 2016.9958089192712 58.691374965106
decision_type=2 2 2 2 2 2
left_child=-1 2 5 4 -3 -2
right_child=1 3 -4 -5 -6 -7
leaf_value=-0.0008599171692410234 0 0.00010603278233205578 0.00061317602953753257 -0.00011746613503966058 -2.8004986605303726e-05 5.8901871585579193e-05
leaf_weight=53 30 59 52 35 32 35
leaf_count=53 30 59 52 35 32 35
internal_value=-3.54998e-05 0.000133462 0.000308322 0 2.48397e-06 0
internal_weight=296 243 117 126 91 65
internal_count=296 243 117 126 91 65
is_linear=0
shrinkage=0.138639


Tree=86
num_leaves=7
num_cat=0
split_feature=0 3 1 2 2 4
split_gain=0.0388069 0.00101084 0.000309688 0.000136499 0.000138419 4.85054e-05
threshold=1.1331673443317416 67.766802570830464 0.7414870184528114 169.99443227118192 156.85594583641372 1994.4475097656252
decision_type=2 2 2 2 2 2
left_child=-1 -2 -3 4 5 -4
right_child=1 2 3 -5 -6 -7
leaf_value=-0.0046972958213623928 0.00058610653079591902 -0.00042755552690976098 -1.5148297670830477e-05 0.00024968898609319519 -0.00026342910826654111 0.00012501475314852145
leaf_weight=33 58 30 31 37 35 57
leaf_count=33 58 30 31 37 35 57
internal_value=-0.00050936 9.29764e-05 -3.86324e-05 9.90204e-06 -2.50826e-05 1.80516e-05
internal_weight=281 248 190 160 123 88
internal_count=281 248 190 160 123 88
is_linear=0
shrinkage=0.138639


Tree=87
num_leaves=7
num_cat=0
split_feature=2 3 1 0 4 1
split_gain=0.0094473 0.000813349 0.000298226 0.000136231 0.000151288 1.1514e-05
threshold=69.774163775973861 50.354183463406748 1.2607654088262201 1.8009850212688689 1.0000000180025095e-35 1.0373060545540638
decision_type=2 2 2 2 2 2
left_child=-1 -2 3 4 -3 -5
right_child=1 2 -4 5 -6 -7
leaf_value=0.0024277736496346423 -0.00056409034795126334 0.00032647928808509177 0.00039592673831041221 -0.00021802755679838488 0 0
leaf_weight=30 41 32 41 36 72 31
leaf_count=30 41 32 41 36 72 31
internal_value=0.00025858 -1.17396e-05 7.84919e-05 0 9.30472e-05 -0.000153894
internal_weight=283 253 212 171 104 67
internal_count=283 253 212 171 104 67
is_linear=0
shrinkage=0.138639


Tree=88
num_leaves=7
num_cat=0
split_feature=2 1 1 3 0 0
split_gain=0.00647926 0.00165173 0.000596035 0.000175688 0.000226342 3.79109e-05
threshold=69.774163775973861 0.47104687185966404 1.3258567918844659 100.43021611659115 1.8566825201417008 1.6327927851831761
decision_type=2 2 2 2 2 2
left_child=-1 -2 3 4 -3 -5
right_child=1 2 -4 5 -6 -7
leaf_value=-0.001966313764221986 0.00086057467088652073 0 -0.00060341044958274644 0 0.00044209982569013052 -0.00015350763741348779
leaf_weight=30 38 45 31 49 31 64
leaf_count=30 38 45 31 49 31 64
internal_value=-0.000164002 5.20136e-05 -7.64235e-05 0 0.000176774 -8.6462e-05
internal_weight=288 258 220 189 76 113
internal_count=288 258 220 189 76 113
is_linear=0
shrinkage=0.138639


Tree=89
num_leaves=5
num_cat=0
split_feature=2 6 3 1
split_gain=0.000584355 0.000121533 0.000212461 9.35332e-06
threshold=115.50658980537865 1388.8994384765626 22.97031746983669 1.1111772368896975
decision_type=2 2 2 2
left_child=-1 2 -2 -3
right_child=1 3 -4 -5
leaf_value=0.00041477641307867467 2.86616173584555e-05 0 -0.00025885224023284545 7.2653486272799653e-05
leaf_weight=52 32 52 115 30
leaf_count=52 32 52 115 30
internal_value=0 -8.25316e-05 -0.000161161 0
internal_weight=281 229 147 82
internal_count=281 229 147 82
is_linear=0
shrinkage=0.138639


Tree=90
num_leaves=6
num_cat=0
split_feature=0 0 1 1 1
split_gain=0.00246182 0.00119157 0.000334285 0.000234709 0.000276057
threshold=2.7271656835234013 0.99558149973551446 1.1783923572876029 0.47104687185966404 0.72369148144505557
decision_type=2 2 2 2 2
left_child=1 -1 3 -3 -5
right_child=-2 2 -4 4 -6
leaf_value=0.00096136857540089153 -0.0010138337870249229 0.00031748755724168826 0.00043107765096964769 -0.00042606608447353744 0
leaf_weight=34 30 32 38 30 124
leaf_count=34 30 32 38 30 124
internal_value=6.80197e-05 0.000228328 7.80814e-05 0 -7.44742e-05
internal_weight=288 258 224 186 154
internal_count=288 258 224 186 154
is_linear=0
shrinkage=0.138639


Tree=91
num_leaves=8
num_cat=0
split_feature=1 0 0 1 4 1 0
split_gain=0.000690729 0.00440463 0.00210518 0.000235606 5.2404e-05 0.000141813 2.91486e-05
threshold=0.46817752718925482 1.3237870097160342 1.4341231267233405 1.3014892042784441 1.0000000180025095e-35 0.84722004241617677 1.7390221712239382
decision_type=2 2 2 2 2 2 2
left_child=1 -1 -2 4 5 -4 -6
right_child=2 -3 3 -5 6 -7 -8
leaf_value=-0.0015258417670979069 0.0011102909711796444 0.00060646877445560358 0 -0.0003559903389835869 0 0.00031528174569251646 -0.00011283196724649905
leaf_weight=31 31 32 33 34 42 33 44
leaf_count=31 31 32 33 34 42 33 44
internal_value=0 -0.000390478 0.000117494 -3.95213e-05 3.82351e-06 0.000116934 -2.39311e-05
internal_weight=280 63 217 186 152 66 86
internal_count=280 63 217 186 152 66 86
is_linear=0
shrinkage=0.138639


Tree=92
num_leaves=7
num_cat=0
split_feature=0 3 4 0 0 0
split_gain=0.000946983 0.000378925 0.0004105 5.52665e-05 5.42452e-05 9.49206e-06
threshold=0.99558149973551446 19.885237371960184 1970.5240478515627 2.0627484056082643 2.1547502756227979 1.5231952258326338
decision_type=2 2 2 2 2 2
left_child=-1 -2 4 5 -3 -4
right_child=1 2 3 -5 -6 -7
leaf_value=0.0007359130101563348 0.00035070104204012597 -0.00011706996941125369 -7.319037726611907e-05 0.00017754105774069051 -0.00056612246187440858 0
leaf_weight=30 33 66 30 30 30 73
leaf_count=30 33 66 30 30 30 73
internal_value=3.99276e-05 -2.93268e-05 -0.000112587 9.07293e-06 -0.00032904 0
internal_weight=292 262 229 133 96 103
internal_count=292 262 229 133 96 103
is_linear=0
shrinkage=0.138639


Tree=93
num_leaves=6
num_cat=0
split_feature=2 1 8 2 0
split_gain=0.0054608 0.000302084 0.000249381 0.000100884 1.85846e-05
threshold=63.606794183904476 1.3258567918844659 1.0000000180025095e-35 172.96022027822644 1.8009850212688689
decision_type=2 2 2 2 2
left_child=-1 2 3 -2 -4
right_child=1 -3 4 -5 -6
leaf_value=-0.0018401203902176917 0.00035287221233959762 -0.00037108032183848341 0 0 -0.00012289450689335999
leaf_weight=31 56 31 73 56 35
leaf_count=31 56 31 73 56 35
internal_value=-0.000219229 0 6.60921e-05 0.000218469 -4.55686e-05
internal_weight=282 251 220 112 108
internal_count=282 251 220 112 108
is_linear=0
shrinkage=0.138639


Tree=94
num_leaves=6
num_cat=0
split_feature=1 4 3 3 4
split_gain=0.00165488 0.0012413 9.26987e-05 7.60156e-05 0.000112899
threshold=0.46817752718925482 1988.329772949219 100.43021611659115 109.59578132356843 2013.9886108398439
decision_type=2 2 2 2 2
left_child=-1 2 -2 4 -3
right_child=1 3 -4 -5 -6
leaf_value=-0.00056858681323818398 0.0007051014544693354 -0.00029564479307677219 0.00015525721687634241 8.2121163569902342e-06 0
leaf_weight=63 65 42 43 37 43
leaf_count=63 65 42 43 37 43
internal_value=1.80173e-05 0.000209012 0.000548282 -5.61507e-05 -0.000144352
internal_weight=293 230 108 122 85
internal_count=293 230 108 122 85
is_linear=0
shrinkage=0.138639


Tree=95
num_leaves=8
num_cat=0
split_feature=3 2 3 3 8 2 2
split_gain=0.000327297 0.000270202 0.000261634 0.000258725 8.60902e-05 5.61325e-05 4.09012e-05
threshold=50.354183463406748 113.17750803629558 118.24293190459123 110.19061379676869 957.73564841530549 146.09094296289121 164.53099237169542
decision_type=2 2 2 2 2 2 2
left_child=1 -1 3 4 5 -2 -7
right_child=2 -3 -4 -5 -6 6 -8
leaf_value=-0.00061937522277813527 0 0 -0.00034775298914689606 0.0004069769650340585 -0.00017470194649684003 0.00024213318969234916 0
leaf_weight=33 47 43 32 30 42 32 30
leaf_count=33 47 43 32 30 42 32 30
internal_value=-9.65547e-05 -0.000335717 0 6.00894e-05 0 4.6928e-05 0.000141781
internal_weight=289 76 213 181 151 109 62
internal_count=289 76 213 181 151 109 62
is_linear=0
shrinkage=0.138639


Tree=96
num_leaves=7
num_cat=0
split_feature=1 0 2 8 5 2
split_gain=0.00233818 0.00548524 0.00138806 0.000157509 0.000182271 6.95089e-05
threshold=0.46817752718925482 1.1002861644540516 121.31415360062212 960.05950927734386 0.27614703829658488 159.35031903598576
decision_type=2 2 2 2 2 2
left_child=1 -1 -2 4 5 -4
right_child=2 -3 3 -5 -6 -7
leaf_value=-0.0021496855329374807 0.00083082757308076396 0.0002591508241508889 -1.8559827219492818e-05 2.7523787171970477e-05 0 -0.0003889485601254416
leaf_weight=30 31 30 53 46 35 64
leaf_count=30 31 30 53 46 35 64
internal_value=-0.000178245 -0.000920223 5.45557e-06 -0.000110936 -0.000187325 -0.000272352
internal_weight=289 60 229 198 152 117
internal_count=289 60 229 198 152 117
is_linear=0
shrinkage=0.138639


Tree=97
num_leaves=9
num_cat=0
split_feature=0 1 1 4 2 3 3 1
split_gain=0.0231003 0.00049143 0.000250184 2.54912e-05 0.000278747 6.0693e-05 0.000233137 2.83088e-05
threshold=1.1002861644540516 0.45441851936820205 0.71492925333221236 1998.6479492187502 157.32369780092463 96.825563681418302 110.90406315474935 0.99392301013718554
decision_type=2 2 2 2 2 2 2 2
left_child=-1 -2 -3 5 7 -4 -7 -5
right_child=1 2 3 4 -6 6 -8 -9
leaf_value=0.0038499571387495312 0.00048350905230487015 -0.0004076040234016162 0 0 -0.00039064848298245585 0.00039666675831950311 0 0.00014395525405733813
leaf_weight=30 32 31 38 30 32 33 32 30
leaf_count=30 32 31 38 30 32 33 32 30
internal_value=0.00045631 0 -6.64516e-05 0 -5.6503e-05 4.13763e-05 0.000139809 5.02385e-05
internal_weight=288 258 226 195 92 103 65 60
internal_count=288 258 226 195 92 103 65 60
is_linear=0
shrinkage=0.138639


Tree=98
num_leaves=8
num_cat=0
split_feature=1 3 1 2 0 6 3
split_gain=0.0106985 0.000802891 0.000469364 0.000297609 7.35147e-05 0.000104453 2.65071e-06
threshold=1.0000000180025095e-35 58.691374965106 1.3014892042784441 132.03482620054771 1.6807150813280274 1393.3396539238065 105.64194104827023
decision_type=2 2 2 2 2 2 2
left_child=-1 -2 3 -3 5 -5 -6
right_child=1 2 -4 4 6 -7 -8
leaf_value=0.0021947024435996715 -0.0006611734907483309 -0.00038544473177985034 0.00046114992559644058 0.00031318341852693948 0 0 -4.3849786827105423e-05
leaf_weight=44 32 36 38 31 36 34 41
leaf_count=44 32 36 38 31 36 34 41
internal_value=0.000298547 -4.62028e-05 3.06946e-05 -3.95489e-05 1.91683e-05 0.000143949 -2.09832e-05
internal_weight=292 248 216 178 142 65 77
internal_count=292 248 216 178 142 65 77
is_linear=0
shrinkage=0.138639


Tree=99
num_leaves=8
num_cat=0
split_feature=2 3 1 3 2 3 8
split_gain=0.00113974 0.000672585 0.000580532 0.000557286 1.09752e-05 6.98616e-05 7.45004e-06
threshold=89.152493370903883 84.779002318019749 1.2607654088262201 22.97031746983669 169.99443227118192 111.87815069864152 956.48011474609382
decision_type=2 2 2 2 2 2 2
left_child=-1 3 4 -2 5 6 -3
right_child=1 2 -4 -5 -6 -7 -8
leaf_value=0.00077731120455109778 0 -6.0977524559862116e-05 0.00059216697312861229 -0.00079422612111831545 -6.9058198047364643e-05 0.00019764510748901661 0
leaf_weight=35 39 38 34 30 40 30 33
leaf_count=35 39 38 34 30 40 30 33
internal_value=7.80656e-05 -1.13801e-05 0.000110525 -0.00038399 0 2.81931e-06 -1.32555e-05
internal_weight=279 244 175 69 141 101 71
internal_count=279 244 175 69 141 101 71
is_linear=0
shrinkage=0.138639


Tree=100
num_leaves=8
num_cat=0
split_feature=1 0 1 1 3 2 3
split_gain=0.00332692 0.00675256 0.00132509 0.000588951 0.000186517 9.83026e-05 3.37373e-05
threshold=0.46817752718925482 1.2144160703914924 0.72369148144505557 1.3258567918844659 86.361869082491566 143.80247117747436 107.51183794997768
decision_type=2 2 2 2 2 2 2
left_child=1 -1 -2 4 -4 -6 -7
right_child=2 -3 3 -5 5 6 -8
leaf_value=-0.0024676271820446944 0.00080651185624762011 0.00013024632128174054 0.00028847874217952053 -0.00061816662254831223 -0.00026562892023988821 0.00010509240595235959 -5.808956681846338e-05
leaf_weight=30 32 35 32 31 31 36 57
leaf_count=30 32 35 32 31 31 36 57
internal_value=-0.000223404 -0.00106454 1.66852e-05 -0.000104258 0 -6.75435e-05 0
internal_weight=284 65 219 187 156 124 93
internal_count=284 65 219 187 156 124 93
is_linear=0
shrinkage=0.138639


Tree=101
num_leaves=7
num_cat=0
split_feature=3 2 6 3 2 3
split_gain=0.000225243 0.000484236 0.000424708 0.000595462 0.000357928 3.90086e-05
threshold=110.19061379676869 161.21558358934195 1388.8994384765626 46.64617465257458 170.53868489679928 39.28769876606443
decision_type=2 2 2 2 2 2
left_child=1 2 3 -1 -2 -3
right_child=4 5 -4 -5 -6 -7
leaf_value=0 0.00042157153978363004 0 0 -0.00077361246494641125 -8.8961198505281959e-05 0.00016999928138245032
leaf_weight=40 42 32 48 48 30 51
leaf_count=40 42 32 48 48 30 51
internal_value=-3.3314e-05 -0.000117532 -0.000287134 -0.000462718 0.000143925 9.83095e-05
internal_weight=291 219 136 88 72 83
internal_count=291 219 136 88 72 83
is_linear=0
shrinkage=0.138639


Tree=102
num_leaves=7
num_cat=0
split_feature=3 1 4 1 8 3
split_gain=0.000820836 0.000432094 0.000340029 0.000334953 9.14033e-05 0.000172672
threshold=50.354183463406748 0.21647121615533726 1988.329772949219 1.0426486971479816 955.17464828491222 106.75552441163832
decision_type=2 2 2 2 2 2
left_child=1 -1 3 -2 -4 -6
right_child=2 -3 4 -5 5 -7
leaf_value=0 0 -0.00082525414726180234 2.4427135459659432e-05 0.0005876872160545765 -0.00037801863172145714 0
leaf_weight=37 59 31 38 35 34 46
leaf_count=37 59 31 38 35 34 46
internal_value=-4.95702e-05 -0.000464855 6.46837e-05 0.000268167 -5.63687e-05 -0.000158794
internal_weight=280 68 212 94 118 80
internal_count=280 68 212 94 118 80
is_linear=0
shrinkage=0.138639


Tree=103
num_leaves=6
num_cat=0
split_feature=3 3 0 3 3
split_gain=0.000853438 0.000188828 0.000387491 9.23666e-05 2.43393e-05
threshold=1.0000000180025095e-35 97.990689480627367 2.2470706489571861 67.766802570830464 111.87815069864152
decision_type=2 2 2 2 2
left_child=-1 3 4 -2 -3
right_child=1 2 -4 -5 -6
leaf_value=0.00054392906224483501 0 0 0.00044382423846946791 -0.00034645269042613111 -0.00015103471911409954
leaf_weight=51 39 82 31 46 41
leaf_count=51 39 82 31 46 41
internal_value=4.15407e-05 -5.05724e-05 1.06541e-05 -0.000218018 -6.639e-05
internal_weight=290 239 154 85 123
internal_count=290 239 154 85 123
is_linear=0
shrinkage=0.138639


Tree=104
num_leaves=6
num_cat=0
split_feature=1 3 1 1 7
split_gain=0.000360986 0.000330174 0.000874507 2.91296e-05 7.40131e-05
threshold=0.47104687185966404 76.31798431097107 1.3258567918844659 1.1014479914900448 0.18059870182969076
decision_type=2 2 2 2 2
left_child=-1 -2 3 4 -3
right_child=1 2 -4 -5 -6
leaf_value=0.00031151410958627916 -0.00040645499066487456 -0.00022484667236771297 0.00066817932727603134 0 0
leaf_weight=64 37 67 30 33 58
leaf_count=64 37 67 30 33 58
internal_value=1.93712e-05 -4.40233e-05 6.06118e-06 -9.96713e-05 -0.000129664
internal_weight=289 225 188 158 125
internal_count=289 225 188 158 125
is_linear=0
shrinkage=0.138639


Tree=105
num_leaves=7
num_cat=0
split_feature=2 3 2 3 2 1
split_gain=0.00439489 0.000584986 0.000624258 8.66909e-05 8.17224e-05 0.000241112
threshold=105.35308026879785 50.354183463406748 135.01016230003859 96.147912726063666 160.46354237723287 1.017097320185876
decision_type=2 2 2 2 2 2
left_child=-1 -2 -3 -4 5 -5
right_child=1 2 3 4 -6 -7
leaf_value=-0.001514126114329358 -0.00041256149787425624 0.00065365865501323841 0.00018642124802201128 0 8.2357743987314331e-07 -0.00043849694206496908
leaf_weight=39 47 30 34 45 56 30
leaf_count=39 47 30 34 45 56 30
internal_value=-0.000223517 0 0.000113257 0 -5.04409e-05 -0.00015561
internal_weight=281 242 195 165 131 75
internal_count=281 242 195 165 131 75
is_linear=0
shrinkage=0.138639


Tree=106
num_leaves=7
num_cat=0
split_feature=2 0 4 4 2 0
split_gain=0.0411647 0.000431719 0.000508928 0.000225823 0.000315388 2.18999e-07
threshold=69.774163775973861 2.1547502756227979 1975.2900756835941 1.0000000180025095e-35 157.51169729194615 1.6900292324878488
decision_type=2 2 2 2 2 2
left_child=-1 3 -3 4 -2 -5
right_child=1 2 -4 5 -6 -7
leaf_value=-0.0050863738069649974 0.00057955730361741156 -0.00064073425073259832 0 -8.6653391542886962e-06 0 0
leaf_weight=31 33 35 30 52 50 44
leaf_count=31 33 35 30 52 50 44
internal_value=-0.000644136 0 -0.00030091 0.000105692 0.000270825 0
internal_weight=275 244 65 179 83 96
internal_count=275 244 65 179 83 96
is_linear=0
shrinkage=0.138639


Tree=107
num_leaves=7
num_cat=0
split_feature=1 1 2 4 0 2
split_gain=0.000563208 0.00114094 0.000273777 0.000237725 9.20508e-05 1.94114e-06
threshold=0.46817752718925482 0.72369148144505557 147.61776418549871 1994.9501647949221 2.3073127224694856 157.32369780092463
decision_type=2 2 2 2 2 2
left_child=-1 -2 3 -3 5 -4
right_child=1 2 4 -5 -6 -7
leaf_value=-0.00030779064400778553 0.00089103213067674746 -0.00047210672982806872 0 0 0.00034311768888061725 2.4324385694778124e-05
leaf_weight=59 30 30 34 30 30 59
leaf_count=59 30 30 34 30 30 59
internal_value=3.06339e-05 0.000153442 0 -0.000217193 0.000132788 0
internal_weight=272 213 183 60 123 93
internal_count=272 213 183 60 123 93
is_linear=0
shrinkage=0.138639


Tree=108
num_leaves=6
num_cat=0
split_feature=1 2 2 3 1
split_gain=0.0132528 0.00186323 0.000183038 9.94821e-05 8.06322e-05
threshold=1.0000000180025095e-35 135.01016230003859 159.16851962407432 107.80670565759019 0.91180582515773378
decision_type=2 2 2 2 2
left_child=-1 -2 4 -4 -3
right_child=1 2 3 -5 -6
leaf_value=-0.0024105548686944494 0.00088625995578114913 0 -0.00027301835121191435 0 0.00022236958940770121
leaf_weight=41 50 38 56 50 47
leaf_count=41 50 38 56 50 47
internal_value=-0.000219353 0.00016497 -1.04687e-05 -0.00015265 0.000104628
internal_weight=282 241 191 106 85
internal_count=282 241 191 106 85
is_linear=0
shrinkage=0.138639


Tree=109
num_leaves=8
num_cat=0
split_feature=1 1 3 1 4 7 4
split_gain=0.00200866 0.000924725 0.000285807 0.000174201 6.9325e-05 4.70465e-05 1.14182e-05
threshold=1.0000000180025095e-35 0.61646634031669323 99.364009209631661 1.0100704406883971 2000.673356489702 0.36523437500000006 1978.9243087768557
decision_type=2 2 2 2 2 2 2
left_child=-1 -2 3 -3 6 -6 -4
right_child=1 2 4 -5 5 -7 -8
leaf_value=-0.00083103816411928108 0.00075112182721056892 0 -7.002511177899888e-05 0.00043804168869884786 -0.00034551074019976074 0 3.683117884587977e-05
leaf_weight=49 32 47 31 30 34 39 31
leaf_count=49 32 47 31 30 34 39 31
internal_value=-4.51294e-05 0.000101779 0 0.000198281 -0.000128791 -0.000217312 0
internal_weight=293 244 212 77 135 73 62
internal_count=293 244 212 77 135 73 62
is_linear=0
shrinkage=0.138639


Tree=110
num_leaves=5
num_cat=0
split_feature=1 8 6 1
split_gain=0.0011961 0.000138285 0.000163937 0.000342279
threshold=0.47104687185966404 962.45061146129274 1411.8735351562502 1.1821851987353613
decision_type=2 2 2 2
left_child=-1 2 3 -2
right_child=1 -3 -4 -5
leaf_value=0.0005785534814967975 -3.9217078368723702e-05 0.00010167770853463539 2.589901537547893e-06 -0.00059772162634632025
leaf_weight=63 115 31 41 33
leaf_count=63 115 31 41 33
internal_value=5.45481e-05 -7.89882e-05 -0.000138315 -0.000212155
internal_weight=283 220 189 148
internal_count=283 220 189 148
is_linear=0
shrinkage=0.138639


Tree=111
num_leaves=8
num_cat=0
split_feature=2 1 1 1 2 3 1
split_gain=0.0504227 0.00125329 0.000642654 0.000310378 5.83934e-05 0.000172177 3.12576e-05
threshold=63.606794183904476 0.47104687185966404 1.3258567918844659 0.7414870184528114 157.44617354075118 102.83163815753572 0.99392301013718554
decision_type=2 2 2 2 2 2 2
left_child=-1 -2 3 -3 6 -6 -5
right_child=1 2 -4 4 5 -7 -8
leaf_value=-0.0057511060054713401 0.00061842836198968776 -0.00043073644185487293 -0.00076983316254712879 -0.00011994806867103598 0.00035285003858246842 0 0
leaf_weight=30 38 32 30 51 30 35 38
leaf_count=30 38 32 30 51 30 35 38
internal_value=-0.000740318 -4.62776e-05 -0.000197187 -6.17346e-05 0 0.000116109 -4.53469e-05
internal_weight=284 254 216 186 154 65 89
internal_count=284 254 216 186 154 65 89
is_linear=0
shrinkage=0.138639


end of trees

feature_importances:
slope_mean=213
slope_std=154
aspect_std=104
aspect_mean=99
GHI_mean=34
DIF_mean=24
DNI_mean=17
GHI_std=6
DNI_std=6
DIF_std=2
PVOUT_mean=2

parameters:
[boosting: gbdt]
[objective: regression]
[metric: rmse]
[tree_learner: serial]
[device_type: cpu]
[data_sample_strategy: bagging]
[data: ]
[valid: ]
[num_iterations: 600]
[learning_rate: 0.138639]
[num_leaves: 113]
[num_threads: -1]
[seed: 0]
[deterministic: 0]
[force_col_wise: 0]
[force_row_wise: 0]
[histogram_pool_size: -1]
[max_depth: -1]
[min_data_in_leaf: 30]
[min_sum_hessian_in_leaf: 0.001]
[bagging_fraction: 0.785791]
[pos_bagging_fraction: 1]
[neg_bagging_fraction: 1]
[bagging_freq: 1]
[bagging_seed: 3]
[bagging_by_query: 0]
[feature_fraction: 0.803406]
[feature_fraction_bynode: 1]
[feature_fraction_seed: 2]
[extra_trees: 0]
[extra_seed: 6]
[early_stopping_round: 0]
[early_stopping_min_delta: 0]
[first_metric_only: 0]
[max_delta_step: 0]
[lambda_l1: 0.0392409]
[lambda_l2: 4.05815]
[linear_lambda: 0]
[min_gain_to_split: 0]
[drop_rate: 0.1]
[max_drop: 50]
[skip_drop: 0.5]
[xgboost_dart_mode: 0]
[uniform_drop: 0]
[drop_seed: 4]
[top_rate: 0.2]
[other_rate: 0.1]
[min_data_per_group: 100]
[max_cat_threshold: 32]
[cat_l2: 10]
[cat_smooth: 10]
[max_cat_to_onehot: 4]
[top_k: 20]
[monotone_constraints: ]
[monotone_constraints_method: basic]
[monotone_penalty: 0]
[feature_contri: ]
[forcedsplits_filename: ]
[refit_decay_rate: 0.9]
[cegb_tradeoff: 1]
[cegb_penalty_split: 0]
[cegb_penalty_feature_lazy: ]
[cegb_penalty_feature_coupled: ]
[path_smooth: 0]
[interaction_constraints: ]
[verbosity: -1]
[saved_feature_importance_type: 0]
[use_quantized_grad: 0]
[num_grad_quant_bins: 4]
[quant_train_renew_leaf: 0]
[stochastic_rounding: 1]
[linear_tree: 0]
[max_bin: 255]
[max_bin_by_feature: ]
[min_data_in_bin: 3]
[bin_construct_sample_cnt: 200000]
[data_random_seed: 1]
[is_enable_sparse: 1]
[enable_bundle: 1]
[use_missing: 1]
[zero_as_missing: 0]
[feature_pre_filter: 1]
[pre_partition: 0]
[two_round: 0]
[header: 0]
[label_column: ]
[weight_column: ]
[group_column: ]
[ignore_column: ]
[categorical_feature: ]
[forcedbins_filename: ]
[precise_float_parser: 0]
[parser_config_file: ]
[objective_seed: 5]
[num_class: 1]
[is_unbalance: 0]
[scale_pos_weight: 1]
[sigmoid: 1]
[boost_from_average: 1]
[reg_sqrt: 0]
[alpha: 0.9]
[fair_c: 1]
[poisson_max_delta_step: 0.7]
[tweedie_variance_power: 1.5]
[lambdarank_truncation_level: 30]
[lambdarank_norm: 1]
[label_gain: ]
[lambdarank_position_bias_regularization: 0]
[eval_at: ]
[multi_error_top_k: 1]
[auc_mu_weights: ]
[num_machines: 1]
[local_listen_port: 12400]
[time_out: 120]
[machine_list_filename: ]
[machines: ]
[gpu_platform_id: -1]
[gpu_device_id: -1]
[gpu_use_dp: 0]
[num_gpu: 1]

end of parameters

pandas_categorical:[]
